{"learner":{"attributes":{"scikit_learn":"{\"_estimator_type\": \"regressor\"}"},"feature_names":["lag_1","lag_7","lag_30","lag_365","day_of_year","sin_day","cos_day"],"feature_types":["float","float","float","float","int","float","float"],"gradient_booster":{"model":{"cats":{"enc":[],"feature_segments":[],"sorted_idx":[]},"gbtree_model_param":{"num_parallel_tree":"1","num_trees":"1000"},"iteration_indptr":[0,1,2,3,4,5,6,7,8,9,10,11,12,13,14,15,16,17,18,19,20,21,22,23,24,25,26,27,28,29,30,31,32,33,34,35,36,37,38,39,40,41,42,43,44,45,46,47,48,49,50,51,52,53,54,55,56,57,58,59,60,61,62,63,64,65,66,67,68,69,70,71,72,73,74,75,76,77,78,79,80,81,82,83,84,85,86,87,88,89,90,91,92,93,94,95,96,97,98,99,100,101,102,103,104,105,106,107,108,109,110,111,112,113,114,115,116,117,118,119,120,121,122,123,124,125,126,127,128,129,130,131,132,133,134,135,136,137,138,139,140,141,142,143,144,145,146,147,148,149,150,151,152,153,154,155,156,157,158,159,160,161,162,163,164,165,166,167,168,169,170,171,172,173,174,175,176,177,178,179,180,181,182,183,184,185,186,187,188,189,190,191,192,193,194,195,196,197,198,199,200,201,202,203,204,205,206,207,208,209,210,211,212,213,214,215,216,217,218,219,220,221,222,223,224,225,226,227,228,229,230,231,232,233,234,235,236,237,238,239,240,241,242,243,244,245,246,247,248,249,250,251,252,253,254,255,256,257,258,259,260,261,262,263,264,265,266,267,268,269,270,271,272,273,274,275,276,277,278,279,280,281,282,283,284,285,286,287,288,289,290,291,292,293,294,295,296,297,298,299,300,301,302,303,304,305,306,307,308,309,310,311,312,313,314,315,316,317,318,319,320,321,322,323,324,325,326,327,328,329,330,331,332,333,334,335,336,337,338,339,340,341,342,343,344,345,346,347,348,349,350,351,352,353,354,355,356,357,358,359,360,361,362,363,364,365,366,367,368,369,370,371,372,373,374,375,376,377,378,379,380,381,382,383,384,385,386,387,388,389,390,391,392,393,394,395,396,397,398,399,400,401,402,403,404,405,406,407,408,409,410,411,412,413,414,415,416,417,418,419,420,421,422,423,424,425,426,427,428,429,430,431,432,433,434,435,436,437,438,439,440,441,442,443,444,445,446,447,448,449,450,451,452,453,454,455,456,457,458,459,460,461,462,463,464,465,466,467,468,469,470,471,472,473,474,475,476,477,478,479,480,481,482,483,484,485,486,487,488,489,490,491,492,493,494,495,496,497,498,499,500,501,502,503,504,505,506,507,508,509,510,511,512,513,514,515,516,517,518,519,520,521,522,523,524,525,526,527,528,529,530,531,532,533,534,535,536,537,538,539,540,541,542,543,544,545,546,547,548,549,550,551,552,553,554,555,556,557,558,559,560,561,562,563,564,565,566,567,568,569,570,571,572,573,574,575,576,577,578,579,580,581,582,583,584,585,586,587,588,589,590,591,592,593,594,595,596,597,598,599,600,601,602,603,604,605,606,607,608,609,610,611,612,613,614,615,616,617,618,619,620,621,622,623,624,625,626,627,628,629,630,631,632,633,634,635,636,637,638,639,640,641,642,643,644,645,646,647,648,649,650,651,652,653,654,655,656,657,658,659,660,661,662,663,664,665,666,667,668,669,670,671,672,673,674,675,676,677,678,679,680,681,682,683,684,685,686,687,688,689,690,691,692,693,694,695,696,697,698,699,700,701,702,703,704,705,706,707,708,709,710,711,712,713,714,715,716,717,718,719,720,721,722,723,724,725,726,727,728,729,730,731,732,733,734,735,736,737,738,739,740,741,742,743,744,745,746,747,748,749,750,751,752,753,754,755,756,757,758,759,760,761,762,763,764,765,766,767,768,769,770,771,772,773,774,775,776,777,778,779,780,781,782,783,784,785,786,787,788,789,790,791,792,793,794,795,796,797,798,799,800,801,802,803,804,805,806,807,808,809,810,811,812,813,814,815,816,817,818,819,820,821,822,823,824,825,826,827,828,829,830,831,832,833,834,835,836,837,838,839,840,841,842,843,844,845,846,847,848,849,850,851,852,853,854,855,856,857,858,859,860,861,862,863,864,865,866,867,868,869,870,871,872,873,874,875,876,877,878,879,880,881,882,883,884,885,886,887,888,889,890,891,892,893,894,895,896,897,898,899,900,901,902,903,904,905,906,907,908,909,910,911,912,913,914,915,916,917,918,919,920,921,922,923,924,925,926,927,928,929,930,931,932,933,934,935,936,937,938,939,940,941,942,943,944,945,946,947,948,949,950,951,952,953,954,955,956,957,958,959,960,961,962,963,964,965,966,967,968,969,970,971,972,973,974,975,976,977,978,979,980,981,982,983,984,985,986,987,988,989,990,991,992,993,994,995,996,997,998,999,1000],"tree_info":[0,0,0,0,0,0,0,0,0,0,0,0,0,0,0,0,0,0,0,0,0,0,0,0,0,0,0,0,0,0,0,0,0,0,0,0,0,0,0,0,0,0,0,0,0,0,0,0,0,0,0,0,0,0,0,0,0,0,0,0,0,0,0,0,0,0,0,0,0,0,0,0,0,0,0,0,0,0,0,0,0,0,0,0,0,0,0,0,0,0,0,0,0,0,0,0,0,0,0,0,0,0,0,0,0,0,0,0,0,0,0,0,0,0,0,0,0,0,0,0,0,0,0,0,0,0,0,0,0,0,0,0,0,0,0,0,0,0,0,0,0,0,0,0,0,0,0,0,0,0,0,0,0,0,0,0,0,0,0,0,0,0,0,0,0,0,0,0,0,0,0,0,0,0,0,0,0,0,0,0,0,0,0,0,0,0,0,0,0,0,0,0,0,0,0,0,0,0,0,0,0,0,0,0,0,0,0,0,0,0,0,0,0,0,0,0,0,0,0,0,0,0,0,0,0,0,0,0,0,0,0,0,0,0,0,0,0,0,0,0,0,0,0,0,0,0,0,0,0,0,0,0,0,0,0,0,0,0,0,0,0,0,0,0,0,0,0,0,0,0,0,0,0,0,0,0,0,0,0,0,0,0,0,0,0,0,0,0,0,0,0,0,0,0,0,0,0,0,0,0,0,0,0,0,0,0,0,0,0,0,0,0,0,0,0,0,0,0,0,0,0,0,0,0,0,0,0,0,0,0,0,0,0,0,0,0,0,0,0,0,0,0,0,0,0,0,0,0,0,0,0,0,0,0,0,0,0,0,0,0,0,0,0,0,0,0,0,0,0,0,0,0,0,0,0,0,0,0,0,0,0,0,0,0,0,0,0,0,0,0,0,0,0,0,0,0,0,0,0,0,0,0,0,0,0,0,0,0,0,0,0,0,0,0,0,0,0,0,0,0,0,0,0,0,0,0,0,0,0,0,0,0,0,0,0,0,0,0,0,0,0,0,0,0,0,0,0,0,0,0,0,0,0,0,0,0,0,0,0,0,0,0,0,0,0,0,0,0,0,0,0,0,0,0,0,0,0,0,0,0,0,0,0,0,0,0,0,0,0,0,0,0,0,0,0,0,0,0,0,0,0,0,0,0,0,0,0,0,0,0,0,0,0,0,0,0,0,0,0,0,0,0,0,0,0,0,0,0,0,0,0,0,0,0,0,0,0,0,0,0,0,0,0,0,0,0,0,0,0,0,0,0,0,0,0,0,0,0,0,0,0,0,0,0,0,0,0,0,0,0,0,0,0,0,0,0,0,0,0,0,0,0,0,0,0,0,0,0,0,0,0,0,0,0,0,0,0,0,0,0,0,0,0,0,0,0,0,0,0,0,0,0,0,0,0,0,0,0,0,0,0,0,0,0,0,0,0,0,0,0,0,0,0,0,0,0,0,0,0,0,0,0,0,0,0,0,0,0,0,0,0,0,0,0,0,0,0,0,0,0,0,0,0,0,0,0,0,0,0,0,0,0,0,0,0,0,0,0,0,0,0,0,0,0,0,0,0,0,0,0,0,0,0,0,0,0,0,0,0,0,0,0,0,0,0,0,0,0,0,0,0,0,0,0,0,0,0,0,0,0,0,0,0,0,0,0,0,0,0,0,0,0,0,0,0,0,0,0,0,0,0,0,0,0,0,0,0,0,0,0,0,0,0,0,0,0,0,0,0,0,0,0,0,0,0,0,0,0,0,0,0,0,0,0,0,0,0,0,0,0,0,0,0,0,0,0,0,0,0,0,0,0,0,0,0,0,0,0,0,0,0,0,0,0,0,0,0,0,0,0,0,0,0,0,0,0,0,0,0,0,0,0,0,0,0,0,0,0,0,0,0,0,0,0,0,0,0,0,0,0,0,0,0,0,0,0,0,0,0,0,0,0,0,0,0,0,0,0,0,0,0,0,0,0,0,0,0,0,0,0,0,0,0,0,0,0,0,0,0,0,0,0,0,0,0,0,0,0,0,0,0,0,0,0,0,0,0,0,0,0,0,0,0,0,0,0,0,0,0,0,0,0,0,0,0,0,0,0,0,0,0,0,0,0,0,0,0,0,0,0,0,0,0,0,0,0,0,0,0,0,0,0,0,0,0,0,0,0,0,0,0,0,0,0,0,0,0,0,0,0,0,0,0,0,0,0,0,0,0,0,0,0,0,0,0,0,0,0,0,0,0,0,0,0,0,0,0,0,0,0,0,0,0,0,0,0,0,0,0,0],"trees":[{"base_weights":[6.788647E-8,1.9908997E-1,-1.3129531E-1,1.4110725E-1,1.0729643E0,2.8101155E-1,-1.9109671E-1,2.2789809E-1,-2.6298538E-1,-7.72407E-1,1.4677855E0,6.2328774E-1,-3.0428892E-1,-2.568583E-1,3.1497622E-1,-6.279497E-2,4.870986E-1,7.844682E-2,-8.437024E-1,-4.3627396E-1,6.214612E-1,2.403379E0,4.9892986E-1,8.988782E-1,-5.6296474E-1,1.9491439E0,-5.276079E-1,-5.8811646E-2,-4.535748E-1,1.3548012E-2,6.8388706E-1,-1.3999568E-1,6.4970654E-1,6.2796754E-1,-1.852413E-1,6.4006853E-1,-5.8271134E-1,-1.1011007E0,5.08372E-2,2.8982878E-1,-1.0171223E-2,8.8135284E-1,1.9914389E-1,-6.1027337E-2,1.2275931E0,3.813447E-1,1.7925637E0,-9.7882414E-1,3.864384E-1,1.8643837E-1,8.898288E-1,-1.8998282E-1,-1.0010701E0,6.864384E-1,-7.9407535E-2,-5.526327E-1,2.6713967E-1,4.1490418E-1,-3.7289244E-1,1.8700458E0,-2.6738606E-2,1.0157048E-1,-8.1392825E-2,2.6493874E-1,-3.1356165E-1,2.68835E-1,8.77513E-2,1.4421858E-1,-2.622309E-1,5.447004E-1,8.041099E-2,4.864384E-1,-2.4181126E-1,-7.627396E-2,-3.6949486E-1,4.864384E-1,-1.8886496E-1,2.8982878E-1,-1.1356163E-1,1.8304797E-1,-2.5627396E-1,5.974317E-2,5.847432E-1,-8.973406E-2,2.6694587E-1,1.3220036E-1,7.3111063E-1,-3.730386E-1,2.8982878E-1,-2.5141552E-1,5.592896E-2,-3.8474885E-1,-1.6779965E-1,8.351345E-3,-1.8314345E-1,-2.2531228E-1,-8.0179706E-2,4.3135276E-1,-5.839592E-2,-1.5141551E-1,2.632071E-1,1.316918E-1,-2.485576E-1,6.735301E-1,-1.1356163E-1,4.347432E-1,-8.467539E-2],"categories":[],"categories_nodes":[],"categories_segments":[],"categories_sizes":[],"default_left":[0,0,0,0,0,0,0,0,0,0,0,0,0,0,0,0,0,0,0,0,0,0,0,0,0,0,0,0,0,0,0,0,0,0,0,0,0,0,0,0,0,0,0,0,0,0,0,0,0,0,0,0,0,0,0,0,0,0,0,0,0,0,0,0,0,0,0,0,0,0,0,0,0,0,0,0,0,0,0,0,0,0,0,0,0,0,0,0,0,0,0,0,0,0,0,0,0,0,0,0,0,0,0,0,0,0,0],"id":0,"left_children":[1,3,5,7,9,11,13,15,17,19,21,23,25,27,29,31,33,35,37,-1,39,41,43,45,47,49,51,53,55,57,59,61,63,65,67,69,71,73,75,-1,-1,-1,77,79,81,83,85,87,-1,-1,-1,89,91,-1,93,95,97,99,101,103,105,-1,-1,-1,-1,-1,-1,-1,-1,-1,-1,-1,-1,-1,-1,-1,-1,-1,-1,-1,-1,-1,-1,-1,-1,-1,-1,-1,-1,-1,-1,-1,-1,-1,-1,-1,-1,-1,-1,-1,-1,-1,-1,-1,-1,-1,-1],"loss_changes":[3.8216072E1,2.9287638E1,2.17761E1,1.9208994E1,2.7363022E1,2.2627113E1,2.5706623E1,3.3937096E1,1.9298908E1,7.5565186E0,2.5994537E1,2.3717346E1,2.2164228E1,2.6543392E1,9.887547E0,1.1807153E1,2.2657726E1,2.3394863E1,8.345083E0,0E0,7.103394E-1,1.708619E1,6.603239E0,2.6142117E1,1.20379715E1,3.5574436E0,6.044072E0,1.6664717E1,2.456385E1,7.909728E0,3.3766594E1,1.2220367E1,9.2312975E0,1.7458862E1,1.9688175E1,1.4383591E1,1.55821905E1,2.782421E0,1.063848E1,0E0,0E0,0E0,2.1379242E0,5.8452125E0,4.806389E0,1.3414E1,1.7222504E1,7.377696E0,0E0,0E0,0E0,6.01083E0,1.2717228E0,0E0,1.932469E1,1.6841629E1,2.2986006E1,1.107487E1,9.981422E0,1.3499981E1,1.0213797E1,0E0,0E0,0E0,0E0,0E0,0E0,0E0,0E0,0E0,0E0,0E0,0E0,0E0,0E0,0E0,0E0,0E0,0E0,0E0,0E0,0E0,0E0,0E0,0E0,0E0,0E0,0E0,0E0,0E0,0E0,0E0,0E0,0E0,0E0,0E0,0E0,0E0,0E0,0E0,0E0,0E0,0E0,0E0,0E0,0E0,0E0],"parents":[2147483647,0,0,1,1,2,2,3,3,4,4,5,5,6,6,7,7,8,8,9,9,10,10,11,11,12,12,13,13,14,14,15,15,16,16,17,17,18,18,20,20,21,21,22,22,23,23,24,24,25,25,26,26,27,27,28,28,29,29,30,30,31,31,32,32,33,33,34,34,35,35,36,36,37,37,38,38,42,42,43,43,44,44,45,45,46,46,47,47,51,51,52,52,54,54,55,55,56,56,57,57,58,58,59,59,60,60],"right_children":[2,4,6,8,10,12,14,16,18,20,22,24,26,28,30,32,34,36,38,-1,40,42,44,46,48,50,52,54,56,58,60,62,64,66,68,70,72,74,76,-1,-1,-1,78,80,82,84,86,88,-1,-1,-1,90,92,-1,94,96,98,100,102,104,106,-1,-1,-1,-1,-1,-1,-1,-1,-1,-1,-1,-1,-1,-1,-1,-1,-1,-1,-1,-1,-1,-1,-1,-1,-1,-1,-1,-1,-1,-1,-1,-1,-1,-1,-1,-1,-1,-1,-1,-1,-1,-1,-1,-1,-1,-1],"split_conditions":[-3.049212E-1,7E0,2.8E1,5E0,-9.5105654E-1,4E0,6E0,3E0,4E0,4E0,-6.870528E-1,5E0,4E0,3E0,3E0,3.35E2,6E0,3E0,3.32E2,-4.3627396E-1,2E0,6E0,6E0,1.6E1,7E0,4E0,1.8E1,-2.8848243E-1,6E0,9.2E1,3E0,2E0,6E0,5E0,2.71E2,2.35E2,2.18E2,-9.951053E-1,3.36E2,2.8982878E-1,-1.0171223E-2,8.8135284E-1,2E0,3E0,-6.016241E-1,3E0,2E0,6E0,3.864384E-1,1.8643837E-1,8.898288E-1,1.6280702E-1,2.3E1,6.864384E-1,1.88E2,3E0,2E0,4.8E1,2E0,7E0,-1.4579919E-1,1.0157048E-1,-8.1392825E-2,2.6493874E-1,-3.1356165E-1,2.68835E-1,8.77513E-2,1.4421858E-1,-2.622309E-1,5.447004E-1,8.041099E-2,4.864384E-1,-2.4181126E-1,-7.627396E-2,-3.6949486E-1,4.864384E-1,-1.8886496E-1,2.8982878E-1,-1.1356163E-1,1.8304797E-1,-2.5627396E-1,5.974317E-2,5.847432E-1,-8.973406E-2,2.6694587E-1,1.3220036E-1,7.3111063E-1,-3.730386E-1,2.8982878E-1,-2.5141552E-1,5.592896E-2,-3.8474885E-1,-1.6779965E-1,8.351345E-3,-1.8314345E-1,-2.2531228E-1,-8.0179706E-2,4.3135276E-1,-5.839592E-2,-1.5141551E-1,2.632071E-1,1.316918E-1,-2.485576E-1,6.735301E-1,-1.1356163E-1,4.347432E-1,-8.467539E-2],"split_indices":[5,3,4,3,5,0,0,2,2,2,5,1,4,1,1,4,1,0,4,0,0,1,1,4,1,1,4,5,2,4,3,0,0,2,4,4,4,5,4,0,0,0,0,0,5,2,0,3,0,0,0,5,4,0,4,0,3,4,1,2,5,0,0,0,0,0,0,0,0,0,0,0,0,0,0,0,0,0,0,0,0,0,0,0,0,0,0,0,0,0,0,0,0,0,0,0,0,0,0,0,0,0,0,0,0,0,0],"split_type":[0,0,0,0,0,0,0,0,0,0,0,0,0,0,0,0,0,0,0,0,0,0,0,0,0,0,0,0,0,0,0,0,0,0,0,0,0,0,0,0,0,0,0,0,0,0,0,0,0,0,0,0,0,0,0,0,0,0,0,0,0,0,0,0,0,0,0,0,0,0,0,0,0,0,0,0,0,0,0,0,0,0,0,0,0,0,0,0,0,0,0,0,0,0,0,0,0,0,0,0,0,0,0,0,0,0,0],"sum_hessian":[1.46E3,5.8E2,8.8E2,5.45E2,3.5E1,1.11E2,7.69E2,4.49E2,9.6E1,6E0,2.9E1,7E1,4.1E1,6.81E2,8.8E1,2.12E2,2.37E2,6.1E1,3.5E1,4E0,2E0,1.4E1,1.5E1,5.7E1,1.3E1,3E0,3.8E1,3.4E2,3.41E2,4.9E1,3.9E1,1.92E2,2E1,1.96E2,4.1E1,3.3E1,2.8E1,2.7E1,8E0,1E0,1E0,1.1E1,3E0,9E0,6E0,3.7E1,2E1,1.1E1,2E0,2E0,1E0,2.3E1,1.5E1,2E0,3.38E2,3E2,4.1E1,2.4E1,2.5E1,1.4E1,2.5E1,4.1E1,1.51E2,1.8E1,2E0,1.08E2,8.8E1,2.1E1,2E1,7E0,2.6E1,2E0,2.6E1,4E0,2.3E1,2E0,6E0,1E0,2E0,5E0,4E0,3E0,3E0,1.6E1,2.1E1,7E0,1.3E1,1E1,1E0,8E0,1.5E1,8E0,7E0,2.82E2,5.6E1,1.76E2,1.24E2,1.1E1,3E1,8E0,1.6E1,9E0,1.6E1,1.2E1,2E0,3E0,2.2E1],"tree_param":{"num_deleted":"0","num_feature":"7","num_nodes":"107","size_leaf_vector":"1"}},{"base_weights":[3.8056332E-3,8.964221E-2,-1.6595227E-1,1.42747415E-2,5.903971E-1,-8.8203865E-1,-1.2564282E-1,6.9386676E-2,-4.431295E-1,4.0268785E-1,1.7047094E0,-1.1285732E0,3.7912074E-1,-1.0303296E-2,-3.547771E-1,-9.7039364E-2,2.2622207E-1,-5.1346403E-1,3.6450395E-1,-4.37237E-1,5.197627E-1,8.229896E-1,2.9726994E0,-2.289742E-1,-1.3157632E0,1.6603918E0,-3.0855718E-1,4.1043285E-1,-1.4107712E-1,-4.8766577E-1,6.290867E-1,-4.454594E-1,-1.19607095E-2,2.2373066E0,1.9420975E-1,5.6238425E-1,-6.431478E-1,-3.7732983E-1,1.5836422E-1,1.0880002E0,1.9582498E-1,1.493564E0,-2.6746505E-1,2.4635448E-1,9.5832664E-1,6.1589366E-1,-2.9925522E-1,-1.6115415E0,-6.2074864E-1,5.9858817E-1,1.4858817E-1,2.79653E-1,7.8874993E-1,-1.9597803E-1,5.841628E-1,-6.700705E-1,6.827021E-2,-4.9864927E-1,1.0674673E0,2.0650199E-1,-1.9182976E-1,-6.3985534E-2,3.6246825E-2,1.0029641E0,5.0983904E-3,8.2533576E-2,-2.4168922E-1,2.8525916E-1,-1.9830686E-1,-2.1887039E-1,6.450791E-2,1.9397707E-1,-1.8406977E-1,3.623659E-1,-1.7802435E-1,1.30381E-1,-1.5982476E-1,6.78037E-1,-8.899785E-3,-3.1142393E-1,5.885761E-1,-2.421359E-1,-5.3700066E-1,-3.9561585E-2,-2.8633147E-1,1.16518036E-1,-2.3100899E-1,-1.6935164E-2,-1.4060977E-1,-1.5378433E-2,5.2729523E-1,-2.7090943E-1,-2.7706545E-2,8.07094E-2,-3.5703087E-1,-1.8824578E-3,-2.2298034E-1,5.809037E-1,-2.3409534E-2],"categories":[],"categories_nodes":[],"categories_segments":[],"categories_sizes":[],"default_left":[0,0,0,0,0,0,0,0,0,0,0,0,0,0,0,0,0,0,0,0,0,0,0,0,0,0,0,0,0,0,0,0,0,0,0,0,0,0,0,0,0,0,0,0,0,0,0,0,0,0,0,0,0,0,0,0,0,0,0,0,0,0,0,0,0,0,0,0,0,0,0,0,0,0,0,0,0,0,0,0,0,0,0,0,0,0,0,0,0,0,0,0,0,0,0,0,0,0,0],"id":1,"left_children":[1,3,5,7,9,11,13,15,17,19,21,23,25,27,29,31,33,35,-1,37,39,41,43,45,47,49,-1,51,53,55,57,59,61,63,65,67,69,-1,71,73,75,77,-1,-1,-1,79,-1,81,83,-1,-1,85,-1,87,89,91,93,95,97,-1,-1,-1,-1,-1,-1,-1,-1,-1,-1,-1,-1,-1,-1,-1,-1,-1,-1,-1,-1,-1,-1,-1,-1,-1,-1,-1,-1,-1,-1,-1,-1,-1,-1,-1,-1,-1,-1,-1,-1],"loss_changes":[2.1303743E1,3.6637726E1,1.40619135E1,2.1331875E1,2.5877712E1,8.511768E0,1.2311903E1,1.972858E1,1.1236715E1,1.1044006E1,1.7677711E1,3.4034348E0,1.0725625E1,1.716952E1,2.07029E1,1.0873692E1,2.4609108E1,1.2639465E1,0E0,7.0410976E0,1.7642075E1,1.5128305E1,7.1608734E-1,3.860952E0,2.6998997E0,1.8232346E-1,0E0,2.0737E1,9.590768E0,1.4039684E1,9.925467E0,1.627486E1,7.938604E0,1.4675936E1,3.1283108E1,5.381229E0,6.015789E0,0E0,3.788613E0,7.772026E0,1.1191502E1,1.0575863E1,0E0,0E0,0E0,8.715507E0,0E0,2.7794647E-1,1.0160677E0,0E0,0E0,8.403225E0,0E0,8.42111E0,1.2766365E1,1.3913448E1,9.162308E0,7.179992E-1,1.4085287E1,0E0,0E0,0E0,0E0,0E0,0E0,0E0,0E0,0E0,0E0,0E0,0E0,0E0,0E0,0E0,0E0,0E0,0E0,0E0,0E0,0E0,0E0,0E0,0E0,0E0,0E0,0E0,0E0,0E0,0E0,0E0,0E0,0E0,0E0,0E0,0E0,0E0,0E0,0E0,0E0],"parents":[2147483647,0,0,1,1,2,2,3,3,4,4,5,5,6,6,7,7,8,8,9,9,10,10,11,11,12,12,13,13,14,14,15,15,16,16,17,17,19,19,20,20,21,21,22,22,23,23,24,24,25,25,27,27,28,28,29,29,30,30,31,31,32,32,33,33,34,34,35,35,36,36,38,38,39,39,40,40,41,41,45,45,47,47,48,48,51,51,53,53,54,54,55,55,56,56,57,57,58,58],"right_children":[2,4,6,8,10,12,14,16,18,20,22,24,26,28,30,32,34,36,-1,38,40,42,44,46,48,50,-1,52,54,56,58,60,62,64,66,68,70,-1,72,74,76,78,-1,-1,-1,80,-1,82,84,-1,-1,86,-1,88,90,92,94,96,98,-1,-1,-1,-1,-1,-1,-1,-1,-1,-1,-1,-1,-1,-1,-1,-1,-1,-1,-1,-1,-1,-1,-1,-1,-1,-1,-1,-1,-1,-1,-1,-1,-1,-1,-1,-1,-1,-1,-1,-1],"split_conditions":[5.4524046E-1,6E0,4E1,5E0,2.7195817E-1,5E0,4E0,3E0,3.9359027E-1,-9.427611E-1,3E0,2E0,3.6E1,6.6E1,6E0,-9.1237473E-1,4E0,-9.951053E-1,3.6450395E-1,3E0,-6.084769E-1,4E0,3E0,2E0,4E0,2E0,-3.0855718E-1,6.4E1,9.9925E-1,9.7601056E-1,8.543222E-1,-9.970012E-1,-7.23644E-1,5E0,9.880227E-1,3E0,7E0,-3.7732983E-1,3E0,7E0,6E0,3.7770796E-1,-2.6746505E-1,2.4635448E-1,9.5832664E-1,3E0,-2.9925522E-1,2E0,4E0,5.9858817E-1,1.4858817E-1,7E0,7.8874993E-1,4E0,5E0,4E0,5E0,7E0,9.8594815E-1,2.0650199E-1,-1.9182976E-1,-6.3985534E-2,3.6246825E-2,1.0029641E0,5.0983904E-3,8.2533576E-2,-2.4168922E-1,2.8525916E-1,-1.9830686E-1,-2.1887039E-1,6.450791E-2,1.9397707E-1,-1.8406977E-1,3.623659E-1,-1.7802435E-1,1.30381E-1,-1.5982476E-1,6.78037E-1,-8.899785E-3,-3.1142393E-1,5.885761E-1,-2.421359E-1,-5.3700066E-1,-3.9561585E-2,-2.8633147E-1,1.16518036E-1,-2.3100899E-1,-1.6935164E-2,-1.4060977E-1,-1.5378433E-2,5.2729523E-1,-2.7090943E-1,-2.7706545E-2,8.07094E-2,-3.5703087E-1,-1.8824578E-3,-2.2298034E-1,5.809037E-1,-2.3409534E-2],"split_indices":[5,3,4,3,5,2,1,2,5,5,2,1,4,4,2,6,4,5,0,2,5,0,0,0,1,0,0,4,5,5,5,6,5,2,6,2,1,0,0,1,2,5,0,0,0,2,0,3,3,0,0,2,0,2,3,0,2,1,5,0,0,0,0,0,0,0,0,0,0,0,0,0,0,0,0,0,0,0,0,0,0,0,0,0,0,0,0,0,0,0,0,0,0,0,0,0,0,0,0],"split_type":[0,0,0,0,0,0,0,0,0,0,0,0,0,0,0,0,0,0,0,0,0,0,0,0,0,0,0,0,0,0,0,0,0,0,0,0,0,0,0,0,0,0,0,0,0,0,0,0,0,0,0,0,0,0,0,0,0,0,0,0,0,0,0,0,0,0,0,0,0,0,0,0,0,0,0,0,0,0,0,0,0,0,0,0,0,0,0,0,0,0,0,0,0,0,0,0,0,0,0],"sum_hessian":[1.46E3,9.7E2,4.9E2,8.44E2,1.26E2,2.5E1,4.65E2,7.54E2,9E1,1.09E2,1.7E1,2.1E1,4E0,3.1E2,1.55E2,3.66E2,3.88E2,8.7E1,3E0,1.3E1,9.6E1,1.1E1,6E0,4E0,1.7E1,2E0,2E0,7.3E1,2.37E2,1.37E2,1.8E1,7.1E1,2.95E2,5E0,3.83E2,9E0,7.8E1,5E0,8E0,3.4E1,6.2E1,8E0,3E0,1E0,5E0,2E0,2E0,1.1E1,6E0,1E0,1E0,7E1,3E0,2.21E2,1.6E1,1.03E2,3.4E1,5E0,1.3E1,1E1,6.1E1,1.17E2,1.78E2,3E0,2E0,3.55E2,2.8E1,7E0,2E0,7.1E1,7E0,5E0,3E0,3.2E1,2E0,4.7E1,1.5E1,5E0,3E0,1E0,1E0,3E0,8E0,3E0,3E0,6.4E1,6E0,1.47E2,7.4E1,1.1E1,5E0,7.3E1,3E1,3E1,4E0,2E0,3E0,7E0,6E0],"tree_param":{"num_deleted":"0","num_feature":"7","num_nodes":"99","size_leaf_vector":"1"}},{"base_weights":[4.4603534E-3,1.3141818E-1,-6.458689E-2,-1.752383E-1,2.3864475E-1,-4.9394883E-2,-8.927736E-1,-2.6485106E-1,9.6244526E-1,6.3872725E-1,1.0768835E-1,-9.059555E-2,2.4965593E-1,3.668319E-1,-1.1888914E0,-3.357885E-1,4.514415E-1,1.7453344E-1,2.1006796E0,1.4242021E0,4.8346663E-1,1.2630872E0,6.174902E-2,-2.3254707E-1,3.962779E-2,-2.5697663E-1,6.277381E-1,-1.7380397E-1,2.626021E-1,-1.3632107E0,-9.531704E-2,-1.6221797E-1,-7.2545624E-1,3.1161776E-1,-9.719589E-2,8.771713E-1,-5.5349067E-2,1.1366538E-1,2.2852635E0,-7.997753E-1,5.6152904E-1,2.6010551E0,-2.8539538E-1,-6.0852454E-3,9.40507E-1,-5.818728E-1,-6.874756E-2,2.2147937E-1,-1.3493139E-1,9.574127E-1,-5.5414957E-1,1.0824646E0,2.5923705E-2,-4.2469355E-1,-1.1796481E-1,2.0355368E-1,-2.4644634E-1,-7.543091E-2,3.1631896E-1,-3.6257733E-2,-2.8347147E-1,2.1102564E-1,-1.8041236E-2,-3.6287653E-1,1.6074173E-1,1.7717126E-1,8.0552834E-1,-4.160523E-1,1.6164638E-2,-1.6241804E-2,2.1798289E-1,1.0604239E0,1.4673465E-1,-3.4138262E-1,5.966007E-1,-2.2389162E-2,1.5080188E-1,7.301716E-2,4.466246E-1,-3.4276748E-1,-1.569547E-1,-3.1903952E-2,4.045045E-1,1.218703E-1,-2.5147611E-2,4.650691E-2,-1.3031265E-1,3.4465733E-1,-1.1483893E-1,1.9843754E-1,-2.011769E-1,4.8761493E-1,1.7742397E-1,-8.737077E-2,1.7141645E-1],"categories":[],"categories_nodes":[],"categories_segments":[],"categories_sizes":[],"default_left":[0,0,0,0,0,0,0,0,0,0,0,0,0,0,0,0,0,0,0,0,0,0,0,0,0,0,0,0,0,0,0,0,0,0,0,0,0,0,0,0,0,0,0,0,0,0,0,0,0,0,0,0,0,0,0,0,0,0,0,0,0,0,0,0,0,0,0,0,0,0,0,0,0,0,0,0,0,0,0,0,0,0,0,0,0,0,0,0,0,0,0,0,0,0,0],"id":2,"left_children":[1,3,5,7,9,11,13,15,17,19,21,23,25,27,29,31,-1,33,35,37,39,41,43,45,47,49,51,-1,-1,53,55,57,59,61,-1,-1,-1,63,65,67,69,71,73,75,77,79,81,83,85,87,89,91,93,-1,-1,-1,-1,-1,-1,-1,-1,-1,-1,-1,-1,-1,-1,-1,-1,-1,-1,-1,-1,-1,-1,-1,-1,-1,-1,-1,-1,-1,-1,-1,-1,-1,-1,-1,-1,-1,-1,-1,-1,-1,-1],"loss_changes":[1.2815744E1,1.6975906E1,1.1870887E1,1.3916336E1,1.9945482E1,1.1493556E1,6.7769804E0,1.6197153E1,8.601645E0,1.0775055E1,1.5261619E1,1.514876E1,2.1806324E1,2.4316838E0,2.5388966E0,8.066134E0,0E0,5.793346E-1,8.064304E0,1.6667038E1,8.462933E0,2.3532349E1,1.6636887E1,2.2389996E1,1.3616257E1,1.8213848E1,1.7759897E1,0E0,0E0,5.3682327E-2,2.243186E0,9.491384E0,4.7948856E0,9.162263E-1,0E0,0E0,0E0,4.558296E0,4.5125732E0,2.580491E0,7.763588E0,1.0102497E1,1.3895466E1,9.104488E0,7.281418E0,3.515602E0,1.4422783E1,1.1879431E1,1.9082045E1,3.0055418E0,6.105385E0,8.902958E0,5.183387E0,0E0,0E0,0E0,0E0,0E0,0E0,0E0,0E0,0E0,0E0,0E0,0E0,0E0,0E0,0E0,0E0,0E0,0E0,0E0,0E0,0E0,0E0,0E0,0E0,0E0,0E0,0E0,0E0,0E0,0E0,0E0,0E0,0E0,0E0,0E0,0E0,0E0,0E0,0E0,0E0,0E0,0E0],"parents":[2147483647,0,0,1,1,2,2,3,3,4,4,5,5,6,6,7,7,8,8,9,9,10,10,11,11,12,12,13,13,14,14,15,15,17,17,18,18,19,19,20,20,21,21,22,22,23,23,24,24,25,25,26,26,29,29,30,30,31,31,32,32,33,33,37,37,38,38,39,39,40,40,41,41,42,42,43,43,44,44,45,45,46,46,47,47,48,48,49,49,50,50,51,51,52,52],"right_children":[2,4,6,8,10,12,14,16,18,20,22,24,26,28,30,32,-1,34,36,38,40,42,44,46,48,50,52,-1,-1,54,56,58,60,62,-1,-1,-1,64,66,68,70,72,74,76,78,80,82,84,86,88,90,92,94,-1,-1,-1,-1,-1,-1,-1,-1,-1,-1,-1,-1,-1,-1,-1,-1,-1,-1,-1,-1,-1,-1,-1,-1,-1,-1,-1,-1,-1,-1,-1,-1,-1,-1,-1,-1,-1,-1,-1,-1,-1,-1],"split_conditions":[-4.327756E-1,2E0,8E0,7E0,2E0,6E0,-9.051932E-1,3.36E2,3.1E2,2.32E2,-8.653073E-1,3E0,3.8566342E-1,5E0,3.63E2,-6.744436E-1,4.514415E-1,4E0,3E0,2.22E2,2.4E2,2E0,7E0,2E0,3E0,2E0,9.0701383E-1,-1.7380397E-1,2.626021E-1,7E0,3E0,3.19E2,2.18E2,2.46E2,-9.719589E-2,8.771713E-1,-5.5349067E-2,4E0,2E0,4E0,-9.813065E-1,5E0,6E0,3.26E2,4E0,3.3E1,8E0,4E0,5.808003E-1,6E0,-9.970012E-1,3E0,9.951053E-1,-4.2469355E-1,-1.1796481E-1,2.0355368E-1,-2.4644634E-1,-7.543091E-2,3.1631896E-1,-3.6257733E-2,-2.8347147E-1,2.1102564E-1,-1.8041236E-2,-3.6287653E-1,1.6074173E-1,1.7717126E-1,8.0552834E-1,-4.160523E-1,1.6164638E-2,-1.6241804E-2,2.1798289E-1,1.0604239E0,1.4673465E-1,-3.4138262E-1,5.966007E-1,-2.2389162E-2,1.5080188E-1,7.301716E-2,4.466246E-1,-3.4276748E-1,-1.569547E-1,-3.1903952E-2,4.045045E-1,1.218703E-1,-2.5147611E-2,4.650691E-2,-1.3031265E-1,3.4465733E-1,-1.1483893E-1,1.9843754E-1,-2.011769E-1,4.8761493E-1,1.7742397E-1,-8.737077E-2,1.7141645E-1],"split_indices":[5,2,2,1,1,2,6,4,4,4,6,3,5,0,4,5,0,0,3,4,4,3,3,0,1,3,5,0,0,1,0,4,4,4,0,0,0,2,3,3,5,2,0,4,2,4,1,0,5,0,6,3,5,0,0,0,0,0,0,0,0,0,0,0,0,0,0,0,0,0,0,0,0,0,0,0,0,0,0,0,0,0,0,0,0,0,0,0,0,0,0,0,0,0,0],"split_type":[0,0,0,0,0,0,0,0,0,0,0,0,0,0,0,0,0,0,0,0,0,0,0,0,0,0,0,0,0,0,0,0,0,0,0,0,0,0,0,0,0,0,0,0,0,0,0,0,0,0,0,0,0,0,0,0,0,0,0,0,0,0,0,0,0,0,0,0,0,0,0,0,0,0,0,0,0,0,0,0,0,0,0,0,0,0,0,0,0,0,0,0,0,0,0],"sum_hessian":[1.46E3,5.14E2,9.46E2,1.33E2,3.81E2,9.3E2,1.6E1,1.24E2,9E0,9.3E1,2.88E2,8.18E2,1.12E2,3E0,1.3E1,1.2E2,4E0,6E0,3E0,1.4E1,7.9E1,1E1,2.78E2,3.91E2,4.27E2,4.8E1,6.4E1,1E0,2E0,1.1E1,2E0,8.4E1,3.6E1,5E0,1E0,2E0,1E0,6E0,8E0,4E0,7.5E1,5E0,5E0,2.59E2,1.9E1,1.24E2,2.67E2,2.09E2,2.18E2,9E0,3.9E1,3.6E1,2.8E1,1E1,1E0,1E0,1E0,7.9E1,5E0,1E1,2.6E1,2E0,3E0,1E0,5E0,2E0,6E0,2E0,2E0,1.6E1,5.9E1,3E0,2E0,4E0,1E0,2.29E2,3E1,9E0,1E1,1E1,1.14E2,2.61E2,6E0,1.3E2,7.9E1,1.11E2,1.07E2,8E0,1E0,3E0,3.6E1,1.6E1,2E1,1.8E1,1E1],"tree_param":{"num_deleted":"0","num_feature":"7","num_nodes":"95","size_leaf_vector":"1"}},{"base_weights":[6.0984916E-3,-2.72544E-1,2.85419E-2,5.0081253E-1,-5.3329325E-1,9.1700405E-2,-8.9156166E-2,8.448961E-1,-3.7528527E-1,-4.1562968E-1,-4.324484E-1,6.455037E-2,5.146377E-1,-1.0737237E0,-5.009614E-2,1.7078663E0,2.1325614E-1,1.1360055E-1,-6.1374456E-1,2.5858444E-1,-4.2423625E-3,6.159054E-1,-8.7986743E-1,-3.306183E-1,-8.879846E-2,-9.746237E-2,3.1190488E-1,5.4317236E-2,2.4087706E0,3.270426E-1,-9.681048E-2,-2.4417855E-1,3.9219883E-1,-6.708411E-1,2.6767236E-1,1.2374675E0,2.053173E-1,1.2598703E0,-2.5164356E-2,-4.785145E-1,7.760198E-1,-3.5829282E-1,9.518731E-3,1.0242149E0,-1.14085436E-1,6.34334E-1,-1.0412761E-1,-3.1432572E-1,2.3127738E-1,8.551016E-1,-3.6095597E-2,1.2101162E-1,-9.250714E-2,3.8623172E-1,-1.9930267E-1,-3.0193892E-1,-1.1445771E-1,2.7191E-1,-2.472616E-1,7.8740156E-1,1.9127095E-1,-2.8736928E-2,9.6950896E-2,-3.3454883E-1,4.9430096E-1,-2.207693E-2,1.0182111E-1,-2.6964226E-1,1.14443615E-1,2.791894E-1,-1.8482275E-1,-2.8534046E-1,4.8285353E-1,-1.635276E-2,-1.00057736E-1,1.03808396E-1,4.5965788E-1,-1.772263E-1,3.4862208E-1],"categories":[],"categories_nodes":[],"categories_segments":[],"categories_sizes":[],"default_left":[0,0,0,0,0,0,0,0,0,0,0,0,0,0,0,0,0,0,0,0,0,0,0,0,0,0,0,0,0,0,0,0,0,0,0,0,0,0,0,0,0,0,0,0,0,0,0,0,0,0,0,0,0,0,0,0,0,0,0,0,0,0,0,0,0,0,0,0,0,0,0,0,0,0,0,0,0,0,0],"id":3,"left_children":[1,3,5,7,9,11,13,15,-1,17,-1,19,21,23,25,27,29,31,33,35,37,39,41,-1,-1,43,45,47,49,-1,51,53,-1,55,57,59,61,63,65,67,69,-1,-1,71,73,75,77,-1,-1,-1,-1,-1,-1,-1,-1,-1,-1,-1,-1,-1,-1,-1,-1,-1,-1,-1,-1,-1,-1,-1,-1,-1,-1,-1,-1,-1,-1,-1,-1],"loss_changes":[9.144417E0,2.2247166E1,1.0065883E1,1.7934002E1,8.163572E0,1.0083092E1,1.813648E1,1.2717861E1,0E0,7.8285027E0,0E0,1.10667E1,8.026484E0,7.049179E-2,7.8492594E0,1.14589615E1,4.1839323E0,9.288137E0,2.8971634E0,1.1060807E1,1.6244179E1,9.132956E0,1.1844711E0,0E0,0E0,7.6497126E0,7.175525E0,3.9667428E0,8.160305E0,0E0,1.3941257E0,1.1795311E1,0E0,4.56814E0,3.5365362E0,7.4805756E0,7.3765945E0,1.1047786E1,1.0688209E1,2.8730202E0,1.0043634E1,0E0,0E0,8.467858E0,5.1981187E0,7.2355633E0,1.5474515E1,0E0,0E0,0E0,0E0,0E0,0E0,0E0,0E0,0E0,0E0,0E0,0E0,0E0,0E0,0E0,0E0,0E0,0E0,0E0,0E0,0E0,0E0,0E0,0E0,0E0,0E0,0E0,0E0,0E0,0E0,0E0,0E0],"parents":[2147483647,0,0,1,1,2,2,3,3,4,4,5,5,6,6,7,7,9,9,11,11,12,12,13,13,14,14,15,15,16,16,17,17,18,18,19,19,20,20,21,21,22,22,25,25,26,26,27,27,28,28,30,30,31,31,33,33,34,34,35,35,36,36,37,37,38,38,39,39,40,40,43,43,44,44,45,45,46,46],"right_children":[2,4,6,8,10,12,14,16,-1,18,-1,20,22,24,26,28,30,32,34,36,38,40,42,-1,-1,44,46,48,50,-1,52,54,-1,56,58,60,62,64,66,68,70,-1,-1,72,74,76,78,-1,-1,-1,-1,-1,-1,-1,-1,-1,-1,-1,-1,-1,-1,-1,-1,-1,-1,-1,-1,-1,-1,-1,-1,-1,-1,-1,-1,-1,-1,-1,-1],"split_conditions":[-9.599327E-1,-9.970012E-1,5.808003E-1,5E0,-9.6461415E-1,7E0,6.084769E-1,3E0,-3.7528527E-1,1.74E2,-4.324484E-1,2E0,7E0,7E0,6E0,3E0,2E0,5E0,7E0,-9.383774E-1,4E0,-9.5105654E-1,3E0,-3.306183E-1,-8.879846E-2,-7.6665884E-1,8.7E1,1.81E2,5.1619668E-2,3.270426E-1,4E0,1.7129314E-1,3.9219883E-1,3E0,3E0,2E0,2E0,2E0,3.7770796E-1,4E0,4.327756E-1,-3.5829282E-1,9.518731E-3,2E0,1.2E2,7.5E1,5E0,-3.1432572E-1,2.3127738E-1,8.551016E-1,-3.6095597E-2,1.2101162E-1,-9.250714E-2,3.8623172E-1,-1.9930267E-1,-3.0193892E-1,-1.1445771E-1,2.7191E-1,-2.472616E-1,7.8740156E-1,1.9127095E-1,-2.8736928E-2,9.6950896E-2,-3.3454883E-1,4.9430096E-1,-2.207693E-2,1.0182111E-1,-2.6964226E-1,1.14443615E-1,2.791894E-1,-1.8482275E-1,-2.8534046E-1,4.8285353E-1,-1.635276E-2,-1.00057736E-1,1.03808396E-1,4.5965788E-1,-1.772263E-1,3.4862208E-1],"split_indices":[6,6,5,1,6,3,5,2,0,4,0,1,0,0,0,0,0,1,2,6,4,5,1,0,0,6,4,4,5,0,2,5,0,3,3,0,2,2,5,2,5,0,0,0,4,4,1,0,0,0,0,0,0,0,0,0,0,0,0,0,0,0,0,0,0,0,0,0,0,0,0,0,0,0,0,0,0,0,0],"split_type":[0,0,0,0,0,0,0,0,0,0,0,0,0,0,0,0,0,0,0,0,0,0,0,0,0,0,0,0,0,0,0,0,0,0,0,0,0,0,0,0,0,0,0,0,0,0,0,0,0,0,0,0,0,0,0,0,0,0,0,0,0,0,0,0,0,0,0,0,0,0,0,0,0,0,0,0,0,0,0],"sum_hessian":[1.46E3,1.08E2,1.352E3,2.7E1,8.1E1,8.8E2,4.72E2,2.3E1,4E0,7.3E1,8E0,8.28E2,5.2E1,1.7E1,4.55E2,9E0,1.4E1,2E1,5.3E1,2.16E2,6.12E2,4.9E1,3E0,1.6E1,1E0,4.03E2,5.2E1,3E0,6E0,3E0,1.1E1,1.6E1,4E0,5E1,3E0,1E1,2.06E2,9E0,6.03E2,6E0,4.3E1,2E0,1E0,5E0,3.98E2,2.9E1,2.3E1,1E0,2E0,5E0,1E0,3E0,8E0,3E0,1.3E1,2.2E1,2.8E1,2E0,1E0,2E0,8E0,5.8E1,1.48E2,1E0,8E0,5.33E2,7E1,4E0,2E0,3.9E1,4E0,1E0,4E0,3.14E2,8.4E1,2.3E1,6E0,1.7E1,6E0],"tree_param":{"num_deleted":"0","num_feature":"7","num_nodes":"79","size_leaf_vector":"1"}},{"base_weights":[5.4629073E-3,2.1206844E-1,-2.1545444E-2,1.179816E0,1.5025878E-1,-3.802715E-2,2.4662448E-1,8.6439544E-1,6.7061377E-1,2.5085425E-1,-2.599623E-1,-2.582347E-1,-3.7922373E-3,1.0775031E0,7.125867E-2,-2.0267391E-1,9.233354E-1,3.4417123E-1,-3.0751622E-1,1.5368737E-1,-6.339877E-1,-2.8455442E-1,1.2491084E0,5.937311E-1,-1.3213042E-2,1.2613307E0,-1.6926432E-1,-3.0234933E-2,1.040487E0,4.522739E-1,3.3465526E-1,1.0865772E-1,8.318061E-1,9.284905E-1,-9.494032E-1,-7.221031E-2,3.4699425E-1,-9.25939E-1,-1.8980017E-1,-1.7112091E-1,-7.7795786E-1,1.8305434E-2,5.437934E-1,2.0310232E-1,-5.110177E-2,1.5778892E0,6.8179077E-1,-1.5348662E-1,8.8966835E-1,-2.3821881E-1,6.468833E-1,1.8305434E-2,1.6870594E-1,1.3243107E-1,-2.839802E-2,1.1880776E-1,5.0110936E-1,1.1997734E-1,4.4998112E-1,-5.3633936E-2,-3.4881368E-1,4.4884905E-2,-2.8063405E-1,-7.9589605E-2,-3.5135126E-1,1.7931387E-1,-1.6557701E-1,-6.359789E-2,5.011996E-1,-3.6513063E-1,-5.67429E-2,1.0136194E-1,-1.2896185E-1,1.2912257E-1,-1.9795937E-2,5.354479E-1,5.043998E-2,2.4768515E-1,-5.6011677E-3,8.957178E-3,-3.0983412E-1,6.671688E-2,2.8914496E-1],"categories":[],"categories_nodes":[],"categories_segments":[],"categories_sizes":[],"default_left":[0,0,0,0,0,0,0,0,0,0,0,0,0,0,0,0,0,0,0,0,0,0,0,0,0,0,0,0,0,0,0,0,0,0,0,0,0,0,0,0,0,0,0,0,0,0,0,0,0,0,0,0,0,0,0,0,0,0,0,0,0,0,0,0,0,0,0,0,0,0,0,0,0,0,0,0,0,0,0,0,0,0,0],"id":4,"left_children":[1,3,5,7,9,11,13,-1,15,17,19,21,23,25,27,-1,29,31,33,35,37,39,41,-1,43,45,-1,47,49,51,-1,53,55,57,59,61,-1,63,65,67,69,-1,-1,71,73,75,77,79,81,-1,-1,-1,-1,-1,-1,-1,-1,-1,-1,-1,-1,-1,-1,-1,-1,-1,-1,-1,-1,-1,-1,-1,-1,-1,-1,-1,-1,-1,-1,-1,-1,-1,-1],"loss_changes":[8.157059E0,9.931648E0,5.7243066E0,6.7318354E0,6.6678343E0,9.188801E0,1.0851297E1,0E0,3.6856956E0,6.8274403E0,5.048332E0,6.8617887E0,1.9752731E1,4.6349697E0,6.2288E0,0E0,2.197175E-1,1.2657369E1,1.59556675E1,3.7085834E0,2.0288353E0,8.933769E0,1.8979912E0,0E0,8.632481E0,1.1257095E0,0E0,6.7125707E0,1.39940605E1,1.3796282E-1,0E0,5.1839404E0,1.2493874E1,1.5144687E0,1.9290838E0,2.8208022E0,0E0,1.3093901E0,2.6113055E0,1.0366085E1,7.527031E0,0E0,0E0,1.353837E1,6.45015E0,1.7420273E0,6.198833E-1,8.413919E0,1.319995E-1,0E0,0E0,0E0,0E0,0E0,0E0,0E0,0E0,0E0,0E0,0E0,0E0,0E0,0E0,0E0,0E0,0E0,0E0,0E0,0E0,0E0,0E0,0E0,0E0,0E0,0E0,0E0,0E0,0E0,0E0,0E0,0E0,0E0,0E0],"parents":[2147483647,0,0,1,1,2,2,3,3,4,4,5,5,6,6,8,8,9,9,10,10,11,11,12,12,13,13,14,14,16,16,17,17,18,18,19,19,20,20,21,21,22,22,24,24,25,25,27,27,28,28,29,29,31,31,32,32,33,33,34,34,35,35,37,37,38,38,39,39,40,40,43,43,44,44,45,45,46,46,47,47,48,48],"right_children":[2,4,6,8,10,12,14,-1,16,18,20,22,24,26,28,-1,30,32,34,36,38,40,42,-1,44,46,-1,48,50,52,-1,54,56,58,60,62,-1,64,66,68,70,-1,-1,72,74,76,78,80,82,-1,-1,-1,-1,-1,-1,-1,-1,-1,-1,-1,-1,-1,-1,-1,-1,-1,-1,-1,-1,-1,-1,-1,-1,-1,-1,-1,-1,-1,-1,-1,-1,-1,-1],"split_conditions":[-9.3688136E-1,2.56E2,7E0,2E0,5E0,-7.23644E-1,-6.870528E-1,8.6439544E-1,2E0,6E0,-9.9421793E-1,9E0,-7.1165663E-1,7E0,3.51E2,-2.0267391E-1,3E0,4E0,2.71E2,2.79E2,6E0,6E0,3E0,5.937311E-1,-4.327756E-1,4.520722E-1,-1.6926432E-1,9.7601056E-1,2E0,3E0,3.3465526E-1,-9.899325E-1,2.79E2,6E0,2E0,7.309513E-2,3.4699425E-1,2.6E2,3E0,9E0,2.96E2,1.8305434E-2,5.437934E-1,6E0,-9.970012E-1,5E0,5E0,9.033558E-1,8.6E1,-2.3821881E-1,6.468833E-1,1.8305434E-2,1.6870594E-1,1.3243107E-1,-2.839802E-2,1.1880776E-1,5.0110936E-1,1.1997734E-1,4.4998112E-1,-5.3633936E-2,-3.4881368E-1,4.4884905E-2,-2.8063405E-1,-7.9589605E-2,-3.5135126E-1,1.7931387E-1,-1.6557701E-1,-6.359789E-2,5.011996E-1,-3.6513063E-1,-5.67429E-2,1.0136194E-1,-1.2896185E-1,1.2912257E-1,-1.9795937E-2,5.354479E-1,5.043998E-2,2.4768515E-1,-5.6011677E-3,8.957178E-3,-3.0983412E-1,6.671688E-2,2.8914496E-1],"split_indices":[5,4,3,1,3,5,5,0,2,1,5,0,5,1,4,0,1,1,4,4,3,0,1,0,5,6,0,5,0,0,0,5,4,0,2,6,0,4,0,2,4,0,0,1,6,0,2,5,4,0,0,0,0,0,0,0,0,0,0,0,0,0,0,0,0,0,0,0,0,0,0,0,0,0,0,0,0,0,0,0,0,0,0],"split_type":[0,0,0,0,0,0,0,0,0,0,0,0,0,0,0,0,0,0,0,0,0,0,0,0,0,0,0,0,0,0,0,0,0,0,0,0,0,0,0,0,0,0,0,0,0,0,0,0,0,0,0,0,0,0,0,0,0,0,0,0,0,0,0,0,0,0,0,0,0,0,0,0,0,0,0,0,0,0,0,0,0,0,0],"sum_hessian":[1.46E3,1.68E2,1.292E3,9E0,1.59E2,1.218E3,7.4E1,1E0,8E0,1.28E2,3.1E1,1.63E2,1.055E3,1.2E1,6.2E1,1E0,7E0,1.1E2,1.8E1,1.5E1,1.6E1,1.61E2,2E0,4E0,1.051E3,1.1E1,1E0,5.7E1,5E0,3E0,4E0,7.5E1,3.5E1,6E0,1.2E1,1.3E1,2E0,9E0,7E0,1.32E2,2.9E1,1E0,1E0,1.56E2,8.95E2,6E0,5E0,5.1E1,6E0,2E0,3E0,1E0,2E0,2.8E1,4.7E1,2.4E1,1.1E1,4E0,2E0,3E0,9E0,1.1E1,2E0,3E0,6E0,2E0,5E0,1.3E2,2E0,1.6E1,1.3E1,1.29E2,2.7E1,2.6E1,8.69E2,5E0,1E0,4E0,1E0,4.3E1,8E0,1E0,5E0],"tree_param":{"num_deleted":"0","num_feature":"7","num_nodes":"83","size_leaf_vector":"1"}},{"base_weights":[6.660788E-3,1.6244214E-2,-4.0853247E-1,5.1887786E-1,7.288994E-3,5.228974E-1,-6.794135E-1,-8.875191E-2,1.8211851E0,-6.2787586E-1,1.3211359E-2,1.9038289E0,-6.864272E-1,-8.4064424E-1,4.175166E-1,-5.917989E-1,3.728656E-1,-1.5155923E-1,2.2256966E0,-1.0353754E0,1.6435257E-1,5.6041306E-1,2.3937605E-3,2.3101418E-1,7.9577607E-1,-4.5897758E-1,4.031348E-1,-5.813815E-1,-1.2540892E0,2.7810615E-1,-1.6664927E-1,-8.14838E-1,3.7767578E-2,5.3118104E-1,-1.5779601E-1,9.4212973E-1,7.5453675E-1,9.2871666E-2,-1.219211E0,1.0651345E0,-1.0338105E0,-5.8341944E-1,1.4632847E-2,-7.993168E-1,2.7225375E-1,-4.028741E-1,-9.484781E-2,-7.812769E-2,-3.496623E-1,2.8909826E-1,-2.2605085E-3,3.2040772E-1,-2.7889539E-2,-1.1030032E-1,-4.2299554E-1,1.1582304E-1,4.942086E-1,8.2315E-2,-3.8927206E-1,-1.6561935E-2,-4.1841897E-1,2.4459799E-1,1.8523233E-3,-2.860764E-1,9.8348865E-3,2.4436715E-1,-2.0319848E-1],"categories":[],"categories_nodes":[],"categories_segments":[],"categories_sizes":[],"default_left":[0,0,0,0,0,0,0,0,0,0,0,0,0,0,0,0,0,0,0,0,0,0,0,0,0,0,0,0,0,0,0,0,0,0,0,0,0,0,0,0,0,0,0,0,0,0,0,0,0,0,0,0,0,0,0,0,0,0,0,0,0,0,0,0,0,0,0],"id":5,"left_children":[1,3,5,7,9,11,13,15,17,19,21,23,25,27,29,31,33,-1,35,37,-1,39,41,-1,-1,-1,-1,43,45,-1,-1,47,-1,49,-1,-1,51,-1,53,55,57,59,61,63,65,-1,-1,-1,-1,-1,-1,-1,-1,-1,-1,-1,-1,-1,-1,-1,-1,-1,-1,-1,-1,-1,-1],"loss_changes":[5.8199177E0,6.4284267E0,8.681383E0,1.994465E1,5.293453E0,1.4666794E1,4.949315E0,4.400537E0,8.6528015E0,6.7955785E0,8.244394E0,1.3530941E0,1.0618277E1,1.7362862E0,2.4979756E0,1.5432396E0,1.7024162E0,0E0,7.0504837E0,2.849924E0,0E0,2.28264E1,9.809679E0,0E0,0E0,0E0,0E0,3.1942134E0,2.4191284E-1,0E0,0E0,1.0575013E0,0E0,2.1041155E0,0E0,0E0,1.1620195E0,0E0,9.4366646E-1,7.6666775E0,2.7714033E0,1.1922252E1,9.0702715E0,1.7000589E0,2.6115687E0,0E0,0E0,0E0,0E0,0E0,0E0,0E0,0E0,0E0,0E0,0E0,0E0,0E0,0E0,0E0,0E0,0E0,0E0,0E0,0E0,0E0,0E0],"parents":[2147483647,0,0,1,1,2,2,3,3,4,4,5,5,6,6,7,7,8,8,9,9,10,10,11,11,12,12,13,13,14,14,15,15,16,16,18,18,19,19,21,21,22,22,27,27,28,28,31,31,33,33,36,36,38,38,39,39,40,40,41,41,42,42,43,43,44,44],"right_children":[2,4,6,8,10,12,14,16,18,20,22,24,26,28,30,32,34,-1,36,38,-1,40,42,-1,-1,-1,-1,44,46,-1,-1,48,-1,50,-1,-1,52,-1,54,56,58,60,62,64,66,-1,-1,-1,-1,-1,-1,-1,-1,-1,-1,-1,-1,-1,-1,-1,-1,-1,-1,-1,-1,-1,-1],"split_conditions":[8E0,-9.9843544E-1,-9.275417E-1,-9.9925E-1,-9.966589E-1,3E0,7E0,-9.997685E-1,2E0,5E0,-9.911141E-1,2.91E2,6E0,9E0,2E0,7E0,5E0,-1.5155923E-1,5E0,2E0,1.6435257E-1,5E0,-9.813065E-1,2.3101418E-1,7.9577607E-1,-4.5897758E-1,4.031348E-1,3.12E2,7E0,2.7810615E-1,-1.6664927E-1,4E0,3.7767578E-2,4E0,-1.5779601E-1,9.4212973E-1,2E0,9.2871666E-2,3E0,2.71E2,2E0,-9.8594815E-1,-9.7601056E-1,5E0,6.4324905E-16,-4.028741E-1,-9.484781E-2,-7.812769E-2,-3.496623E-1,2.8909826E-1,-2.2605085E-3,3.2040772E-1,-2.7889539E-2,-1.1030032E-1,-4.2299554E-1,1.1582304E-1,4.942086E-1,8.2315E-2,-3.8927206E-1,-1.6561935E-2,-4.1841897E-1,2.4459799E-1,1.8523233E-3,-2.860764E-1,9.8348865E-3,2.4436715E-1,-2.0319848E-1],"split_indices":[2,5,5,5,5,1,0,5,3,1,5,4,0,2,1,1,3,0,3,0,0,2,5,0,0,0,0,4,1,0,0,1,0,0,0,0,1,0,1,4,1,5,5,0,5,0,0,0,0,0,0,0,0,0,0,0,0,0,0,0,0,0,0,0,0,0,0],"split_type":[0,0,0,0,0,0,0,0,0,0,0,0,0,0,0,0,0,0,0,0,0,0,0,0,0,0,0,0,0,0,0,0,0,0,0,0,0,0,0,0,0,0,0,0,0,0,0,0,0,0,0,0,0,0,0,0,0,0,0,0,0,0,0,0,0,0,0],"sum_hessian":[1.46E3,1.428E3,3.2E1,2.4E1,1.404E3,7E0,2.5E1,1.7E1,7E0,1.2E1,1.392E3,3E0,4E0,2.2E1,3E0,8E0,9E0,1E0,6E0,9E0,3E0,2.6E1,1.366E3,2E0,1E0,3E0,1E0,1.5E1,7E0,2E0,1E0,6E0,2E0,8E0,1E0,3E0,3E0,1E0,8E0,2E1,6E0,2.7E1,1.339E3,1.2E1,3E0,6E0,1E0,3E0,3E0,4E0,4E0,2E0,1E0,2E0,6E0,1E1,1E1,1E0,5E0,1.7E1,1E1,1.3E1,1.326E3,1E1,2E0,2E0,1E0],"tree_param":{"num_deleted":"0","num_feature":"7","num_nodes":"67","size_leaf_vector":"1"}},{"base_weights":[5.354021E-3,-2.0268801E-1,2.2110287E-2,2.6442564E-1,-3.5971844E-1,4.7251612E-1,1.2235661E-2,5.283929E-1,-1.0555023E0,-4.3033177E-1,4.5832905E-1,2.5275052E-1,4.4305223E-1,-4.2754224E-1,2.2753716E-2,1.1512246E0,7.794555E-2,-7.856462E-2,-3.5653108E-1,-3.431603E-1,-3.1234384E-1,-2.7961564E-1,3.602676E-1,6.892468E-1,-3.6544898E-1,-5.280133E-1,3.8798827E-1,3.464858E-1,5.8346224E-4,7.4486786E-1,5.07946E-1,2.239887E-1,-1.5144438E-1,3.5722852E-1,-3.8098174E-1,1.4175804E0,-1.2524262E-1,3.0003747E-1,-7.885894E-1,-1.0034213E0,-2.4013819E-1,4.159778E-1,-8.2078516E-1,4.5807907E-1,-1.9357431E-3,-1.1057883E-1,3.3227715E-1,-9.128876E-2,1.22562625E-1,2.2134061E-1,-1.1767381E-1,-2.2110786E-1,-7.49043E-2,1.2396843E-1,5.8126384E-1,3.044369E-1,-3.03666E-1,-1.667136E-3,2.283624E-1,2.9657222E-2,-2.8589207E-1,-3.5676488E-1,-3.3468846E-2,-1.1390912E-1,1.23906456E-1,9.979368E-2,3.341912E-1,-4.358863E-1,2.5618368E-1,3.8051657E-2,-9.66779E-3],"categories":[],"categories_nodes":[],"categories_segments":[],"categories_sizes":[],"default_left":[0,0,0,0,0,0,0,0,0,0,0,0,0,0,0,0,0,0,0,0,0,0,0,0,0,0,0,0,0,0,0,0,0,0,0,0,0,0,0,0,0,0,0,0,0,0,0,0,0,0,0,0,0,0,0,0,0,0,0,0,0,0,0,0,0,0,0,0,0,0,0],"id":6,"left_children":[1,3,5,7,9,11,13,15,17,19,21,23,-1,25,27,29,31,-1,-1,33,-1,-1,-1,35,37,39,-1,41,43,-1,45,-1,47,49,51,53,55,57,59,61,63,65,67,-1,69,-1,-1,-1,-1,-1,-1,-1,-1,-1,-1,-1,-1,-1,-1,-1,-1,-1,-1,-1,-1,-1,-1,-1,-1,-1,-1],"loss_changes":[5.097539E0,8.090384E0,6.0118065E0,1.0313417E1,4.9339705E0,6.027491E0,6.138658E0,6.6435366E0,2.1626711E-1,3.6893835E0,8.346413E0,6.9979286E0,0E0,6.0425963E0,9.2943E0,7.3051605E0,2.413911E0,0E0,0E0,1.9373989E0,0E0,0E0,0E0,9.075842E0,3.3341432E0,3.8647842E0,0E0,7.0740566E0,4.66716E0,0E0,4.613162E0,0E0,1.1514548E0,1.4303205E0,2.8546572E0,3.37718E0,9.1166525E0,7.0888615E-1,1.1153836E0,1.6900587E0,1.9799075E0,4.2245016E0,6.5343094E0,0E0,4.731628E0,0E0,0E0,0E0,0E0,0E0,0E0,0E0,0E0,0E0,0E0,0E0,0E0,0E0,0E0,0E0,0E0,0E0,0E0,0E0,0E0,0E0,0E0,0E0,0E0,0E0,0E0],"parents":[2147483647,0,0,1,1,2,2,3,3,4,4,5,5,6,6,7,7,8,8,9,9,10,10,11,11,13,13,14,14,15,15,16,16,19,19,23,23,24,24,25,25,27,27,28,28,30,30,32,32,33,33,34,34,35,35,36,36,37,37,38,38,39,39,40,40,41,41,42,42,44,44],"right_children":[2,4,6,8,10,12,14,16,18,20,22,24,-1,26,28,30,32,-1,-1,34,-1,-1,-1,36,38,40,-1,42,44,-1,46,-1,48,50,52,54,56,58,60,62,64,66,68,-1,70,-1,-1,-1,-1,-1,-1,-1,-1,-1,-1,-1,-1,-1,-1,-1,-1,-1,-1,-1,-1,-1,-1,-1,-1,-1,-1],"split_conditions":[-9.599327E-1,-9.970012E-1,-9.383774E-1,5E0,6E0,2.02E2,-9.1237473E-1,3E0,2E0,-9.6461415E-1,2E0,3E0,4.4305223E-1,8E0,-8.190149E-1,3E0,2E0,-7.856462E-2,-3.5653108E-1,1.69E2,-3.1234384E-1,-2.7961564E-1,3.602676E-1,3E0,2E0,1.62E2,3.8798827E-1,7E0,1E0,7.4486786E-1,1.81E2,2.239887E-1,1.86E2,3E0,2E0,3E0,1.67E2,6E0,-9.549668E-1,4E0,5E0,-8.287701E-1,4E0,4.5807907E-1,-8.758917E-1,-1.1057883E-1,3.3227715E-1,-9.128876E-2,1.22562625E-1,2.2134061E-1,-1.1767381E-1,-2.2110786E-1,-7.49043E-2,1.2396843E-1,5.8126384E-1,3.044369E-1,-3.03666E-1,-1.667136E-3,2.283624E-1,2.9657222E-2,-2.8589207E-1,-3.5676488E-1,-3.3468846E-2,-1.1390912E-1,1.23906456E-1,9.979368E-2,3.341912E-1,-4.358863E-1,2.5618368E-1,3.8051657E-2,-9.66779E-3],"split_indices":[6,6,6,1,1,4,6,2,0,6,2,0,0,1,6,1,0,0,0,4,0,0,0,1,3,4,0,1,3,0,4,0,4,2,1,2,4,0,6,0,1,6,0,0,5,0,0,0,0,0,0,0,0,0,0,0,0,0,0,0,0,0,0,0,0,0,0,0,0,0,0],"split_type":[0,0,0,0,0,0,0,0,0,0,0,0,0,0,0,0,0,0,0,0,0,0,0,0,0,0,0,0,0,0,0,0,0,0,0,0,0,0,0,0,0,0,0,0,0,0,0,0,0,0,0,0,0,0,0,0,0,0,0,0,0,0,0,0,0,0,0,0,0,0,0],"sum_hessian":[1.46E3,1.08E2,1.352E3,2.7E1,8.1E1,2.8E1,1.324E3,2.3E1,4E0,7.5E1,6E0,2.4E1,4E0,3E1,1.294E3,9E0,1.4E1,1E0,3E0,6.7E1,8E0,2E0,4E0,1.4E1,1E1,2.9E1,1E0,8.2E1,1.212E3,2E0,7E0,3E0,1.1E1,3E0,6.4E1,7E0,7E0,4E0,6E0,1E1,1.9E1,7.8E1,4E0,1E0,1.211E3,3E0,4E0,9E0,2E0,2E0,1E0,1.6E1,4.8E1,3E0,4E0,3E0,4E0,3E0,1E0,1E0,5E0,8E0,2E0,1.6E1,3E0,7.1E1,7E0,3E0,1E0,2.3E2,9.81E2],"tree_param":{"num_deleted":"0","num_feature":"7","num_nodes":"71","size_leaf_vector":"1"}},{"base_weights":[5.274715E-3,3.8936722E-1,3.5003952E-3,4.6643785E-1,-9.810317E-4,-6.1295164E-1,1.3525989E0,4.9184162E-2,-4.8186105E-2,-3.4642196E-1,8.207446E-2,2.0377688E0,-1.4058223E-1,-4.4710636E-2,1.4056706E-1,-1.4133893E-1,3.405992E-2,5.338285E-2,-3.0829597E-2,7.1565E-1,4.4867028E-2,-3.548846E-1,6.858696E-2,1.0050152E-1,8.873254E-1,-2.0000087E-1,4.9105507E-1,1.1422496E-1,-3.4866992E-1,6.95681E-2,-1.6529877E-1,5.0699882E-2,-9.799757E-2,1.2864509E-1,-2.7993242E-3,7.4252926E-2,4.9684688E-1,-2.9883483E-2,-1.05177246E-1,-1.6974635E-1,2.1751897E-1,1.1083799E-1,1.3032164E-3,-1.7715047E-1,9.5642425E-2],"categories":[],"categories_nodes":[],"categories_segments":[],"categories_sizes":[],"default_left":[0,0,0,0,0,0,0,0,0,0,0,0,0,0,0,0,0,0,0,0,0,0,0,0,0,0,0,0,0,0,0,0,0,0,0,0,0,0,0,0,0,0,0,0,0],"id":7,"left_children":[1,-1,3,5,7,9,11,13,15,-1,17,19,-1,21,23,25,27,-1,-1,-1,-1,29,31,33,35,37,39,41,43,-1,-1,-1,-1,-1,-1,-1,-1,-1,-1,-1,-1,-1,-1,-1,-1],"loss_changes":[3.3462803E0,0E0,3.0294032E0,1.422026E1,3.428941E0,2.7306728E0,1.0937603E1,6.0297112E0,5.720256E0,0E0,8.916751E-2,3.5827732E0,0E0,1.2218602E1,1.0562084E1,1.3082321E1,1.2220403E1,0E0,0E0,0E0,0E0,1.0829641E1,1.0175554E1,1.2228254E1,8.444466E0,4.81783E0,7.829783E0,9.225349E0,1.1326049E1,0E0,0E0,0E0,0E0,0E0,0E0,0E0,0E0,0E0,0E0,0E0,0E0,0E0,0E0,0E0,0E0],"parents":[2147483647,0,0,2,2,3,3,4,4,5,5,6,6,7,7,8,8,10,10,11,11,13,13,14,14,15,15,16,16,21,21,22,22,23,23,24,24,25,25,26,26,27,27,28,28],"right_children":[2,-1,4,6,8,10,12,14,16,-1,18,20,-1,22,24,26,28,-1,-1,-1,-1,30,32,34,36,38,40,42,44,-1,-1,-1,-1,-1,-1,-1,-1,-1,-1,-1,-1,-1,-1,-1,-1],"split_conditions":[1E0,3.8936722E-1,4E0,3E0,3E0,2E0,6E0,3E0,3E0,-3.4642196E-1,3E0,8E0,-1.4058223E-1,2E0,9.911141E-1,3.38E2,8.60961E-1,5.338285E-2,-3.0829597E-2,7.1565E-1,4.4867028E-2,2E0,6E0,2E0,5E0,4.171936E-1,2E0,4E0,6E0,6.95681E-2,-1.6529877E-1,5.0699882E-2,-9.799757E-2,1.2864509E-1,-2.7993242E-3,7.4252926E-2,4.9684688E-1,-2.9883483E-2,-1.05177246E-1,-1.6974635E-1,2.1751897E-1,1.1083799E-1,1.3032164E-3,-1.7715047E-1,9.5642425E-2],"split_indices":[3,0,4,2,1,2,2,3,2,0,3,0,0,0,5,4,6,0,0,0,0,2,0,0,3,5,3,2,1,0,0,0,0,0,0,0,0,0,0,0,0,0,0,0,0],"split_type":[0,0,0,0,0,0,0,0,0,0,0,0,0,0,0,0,0,0,0,0,0,0,0,0,0,0,0,0,0,0,0,0,0,0,0,0,0,0,0,0,0,0,0,0,0],"sum_hessian":[1.46E3,1E0,1.459E3,1.3E1,1.446E3,6E0,7E0,7.01E2,7.45E2,3E0,3E0,5E0,2E0,3.46E2,3.55E2,3.49E2,3.96E2,2E0,1E0,4E0,1E0,9.2E1,2.54E2,3.38E2,1.7E1,3.2E2,2.9E1,3.28E2,6.8E1,2.3E1,6.9E1,2.03E2,5.1E1,8.4E1,2.54E2,1E1,7E0,1.93E2,1.27E2,5E0,2.4E1,9.8E1,2.3E2,5E1,1.8E1],"tree_param":{"num_deleted":"0","num_feature":"7","num_nodes":"45","size_leaf_vector":"1"}},{"base_weights":[4.5017796E-3,1.7015743E-1,-8.451023E-3,4.064486E-1,-2.2988425E-1,-4.753508E-3,-8.3959967E-1,2.6981682E-1,6.140159E-1,4.067881E-2,-7.352641E-1,-2.5895208E-1,6.4388257E-3,-3.3818674E-1,-5.284417E-2,5.0851654E-2,8.593195E-1,-2.606957E-1,9.389911E-1,-1.0267973E-1,-8.9845264E-1,-4.70826E-1,9.233562E-1,3.392037E-1,-6.364982E-3,-2.057758E-1,3.275836E-1,-3.1176168E-1,1.5264331E0,-5.269606E-1,3.4711415E-1,4.041529E-1,-5.4314613E-2,4.3143725E-1,-2.5575462E-1,-1.1695203E0,-4.7764292E-1,-5.972148E-1,5.3449625E-1,1.4133248E0,-5.276894E-1,1.6531281E-2,1.2066655E0,-7.368344E-1,1.9207968E-3,9.50566E-2,-1.7259608E-1,-1.4972278E-1,1.429609E-1,-2.324117E-1,1.6911966E-1,6.227048E-1,1.3897741E-2,-1.97341E-1,6.470342E-2,3.8245732E-1,-8.368643E-2,3.8136974E-2,-6.257855E-2,2.1940757E-2,1.7220601E-1,-3.9515987E-1,-6.4668596E-2,-1.7634046E-1,1.0972489E-2,-1.3510059E-1,-2.6393697E-1,-1.0195895E-1,3.1699255E-1,7.3566325E-2,5.4945666E-1,-2.2820285E-1,-9.257376E-3,7.181264E-2,-3.4127566E-1,5.5949557E-1,3.8338497E-2,-1.1151556E-1,-3.9590982E-1,1.8879637E-1,-2.2058124E-3],"categories":[],"categories_nodes":[],"categories_segments":[],"categories_sizes":[],"default_left":[0,0,0,0,0,0,0,0,0,0,0,0,0,0,0,0,0,0,0,0,0,0,0,0,0,0,0,0,0,0,0,0,0,0,0,0,0,0,0,0,0,0,0,0,0,0,0,0,0,0,0,0,0,0,0,0,0,0,0,0,0,0,0,0,0,0,0,0,0,0,0,0,0,0,0,0,0,0,0,0,0],"id":8,"left_children":[1,3,5,7,9,11,13,15,-1,17,19,21,23,-1,-1,25,27,29,31,33,35,37,39,41,43,45,47,49,51,53,55,-1,57,59,-1,61,63,65,67,69,71,73,75,77,79,-1,-1,-1,-1,-1,-1,-1,-1,-1,-1,-1,-1,-1,-1,-1,-1,-1,-1,-1,-1,-1,-1,-1,-1,-1,-1,-1,-1,-1,-1,-1,-1,-1,-1,-1,-1],"loss_changes":[3.1363127E0,1.0113226E1,4.163247E0,1.4463341E1,5.4993944E0,3.845364E0,9.466405E-1,8.088377E0,0E0,7.5544586E0,1.3529735E0,1.4713255E1,5.51971E0,0E0,0E0,3.4052086E0,1.3757034E1,3.581522E0,2.9113402E0,1.9698066E0,6.961336E-1,6.5452213E0,7.144497E0,1.3415539E1,7.554946E0,5.0106783E0,3.0698915E0,3.2738585E0,8.846273E0,1.5994072E0,4.421447E0,0E0,1.1049428E-1,1.11281455E-1,0E0,5.613413E-1,3.6137187E-1,1.4299984E0,3.0983706E0,2.970358E0,3.2379252E-1,9.531086E0,8.994808E0,2.4888287E0,7.190105E0,0E0,0E0,0E0,0E0,0E0,0E0,0E0,0E0,0E0,0E0,0E0,0E0,0E0,0E0,0E0,0E0,0E0,0E0,0E0,0E0,0E0,0E0,0E0,0E0,0E0,0E0,0E0,0E0,0E0,0E0,0E0,0E0,0E0,0E0,0E0,0E0],"parents":[2147483647,0,0,1,1,2,2,3,3,4,4,5,5,6,6,7,7,9,9,10,10,11,11,12,12,15,15,16,16,17,17,18,18,19,19,20,20,21,21,22,22,23,23,24,24,25,25,26,26,27,27,28,28,29,29,30,30,32,32,33,33,35,35,36,36,37,37,38,38,39,39,40,40,41,41,42,42,43,43,44,44],"right_children":[2,4,6,8,10,12,14,16,-1,18,20,22,24,-1,-1,26,28,30,32,34,36,38,40,42,44,46,48,50,52,54,56,-1,58,60,-1,62,64,66,68,70,72,74,76,78,80,-1,-1,-1,-1,-1,-1,-1,-1,-1,-1,-1,-1,-1,-1,-1,-1,-1,-1,-1,-1,-1,-1,-1,-1,-1,-1,-1,-1,-1,-1,-1,-1,-1,-1,-1,-1],"split_conditions":[2.6E1,4E0,9E0,2.4E1,1.8E1,4E1,6E0,3E0,6.140159E-1,7E0,2E0,5E0,5.1E1,-3.3818674E-1,-5.284417E-2,4E0,8E0,4E0,8E0,7E0,3E0,7E0,3.6E1,4.8E1,5.4E1,9E0,4E0,6E0,4E0,6E0,5E0,4.041529E-1,9E0,5E0,-2.5575462E-1,6E0,7E0,4E0,3E0,6E0,2E0,4.7E1,4E0,5.3E1,5.8E1,9.50566E-2,-1.7259608E-1,-1.4972278E-1,1.429609E-1,-2.324117E-1,1.6911966E-1,6.227048E-1,1.3897741E-2,-1.97341E-1,6.470342E-2,3.8245732E-1,-8.368643E-2,3.8136974E-2,-6.257855E-2,2.1940757E-2,1.7220601E-1,-3.9515987E-1,-6.4668596E-2,-1.7634046E-1,1.0972489E-2,-1.3510059E-1,-2.6393697E-1,-1.0195895E-1,3.1699255E-1,7.3566325E-2,5.4945666E-1,-2.2820285E-1,-9.257376E-3,7.181264E-2,-3.4127566E-1,5.5949557E-1,3.8338497E-2,-1.1151556E-1,-3.9590982E-1,1.8879637E-1,-2.2058124E-3],"split_indices":[4,0,3,4,4,4,1,0,0,0,1,2,4,0,0,3,4,1,0,0,2,1,4,4,4,4,4,3,3,3,1,0,0,0,0,1,0,3,3,2,0,4,1,4,4,0,0,0,0,0,0,0,0,0,0,0,0,0,0,0,0,0,0,0,0,0,0,0,0,0,0,0,0,0,0,0,0,0,0,0,0],"split_type":[0,0,0,0,0,0,0,0,0,0,0,0,0,0,0,0,0,0,0,0,0,0,0,0,0,0,0,0,0,0,0,0,0,0,0,0,0,0,0,0,0,0,0,0,0,0,0,0,0,0,0,0,0,0,0,0,0,0,0,0,0,0,0,0,0,0,0,0,0,0,0,0,0,0,0,0,0,0,0,0,0],"sum_hessian":[1.46E3,1.05E2,1.355E3,6.6E1,3.9E1,1.35E3,5E0,6.2E1,4E0,2.6E1,1.3E1,5.6E1,1.294E3,3E0,2E0,4.6E1,1.6E1,2E1,6E0,3E0,1E1,4.8E1,8E0,4.7E1,1.247E3,2.4E1,2.2E1,6E0,1E1,1.4E1,6E0,4E0,2E0,2E0,1E0,5E0,5E0,4.3E1,5E0,6E0,2E0,3.5E1,1.2E1,1.3E1,1.234E3,1E1,1.4E1,3E0,1.9E1,4E0,2E0,7E0,3E0,1.2E1,2E0,2E0,4E0,1E0,1E0,1E0,1E0,4E0,1E0,4E0,1E0,3E1,1.3E1,2E0,3E0,2E0,4E0,1E0,1E0,3E1,5E0,7E0,5E0,9E0,4E0,1.7E1,1.217E3],"tree_param":{"num_deleted":"0","num_feature":"7","num_nodes":"81","size_leaf_vector":"1"}},{"base_weights":[3.685245E-3,1.0134742E-2,-2.7570918E-1,3.5604998E-1,3.972453E-3,4.7674215E-1,-4.966285E-1,-3.5183653E-1,1.036548E0,-4.811186E-1,8.496653E-3,1.6052177E0,-5.2138674E-1,-6.094756E-1,2.7639973E-1,2.2201085E-1,-5.461918E-1,-1.4180721E-1,1.2017088E0,-7.763056E-1,1.1313859E-1,3.5217506E-1,1.7023495E-3,1.9445199E-1,6.714527E-1,-3.6406615E-1,3.3709222E-1,-4.0339255E-1,-2.836372E-1,2.035272E-1,-1.3945095E-1,-2.4141384E-2,1.04898594E-1,-7.151184E-1,2.5902916E-2,1.5695245E0,7.3696256E-2,7.804656E-2,-9.2037404E-1,7.216022E-1,-8.0641705E-1,-1.0266324E0,8.511261E-3,-7.782926E-2,-8.108555E-1,-1.1694975E-1,-2.8288388E-1,5.368804E-1,-2.8663088E-2,-4.211188E-3,5.0534535E-2,-3.0486605E-1,-2.304089E-2,6.0447816E-2,4.1780803E-1,-3.6811367E-1,-5.5255298E-2,-3.993127E-1,-9.400782E-2,2.4273273E-1,7.723806E-4,1.7925704E-1,-1.35788E-1,-2.9257515E-1,2.6327135E-2],"categories":[],"categories_nodes":[],"categories_segments":[],"categories_sizes":[],"default_left":[0,0,0,0,0,0,0,0,0,0,0,0,0,0,0,0,0,0,0,0,0,0,0,0,0,0,0,0,0,0,0,0,0,0,0,0,0,0,0,0,0,0,0,0,0,0,0,0,0,0,0,0,0,0,0,0,0,0,0,0,0,0,0,0,0],"id":9,"left_children":[1,3,5,7,9,11,13,15,17,19,21,23,25,27,29,31,33,-1,35,37,-1,39,41,-1,-1,-1,-1,43,-1,-1,-1,-1,-1,45,-1,47,49,-1,51,53,55,57,59,61,63,-1,-1,-1,-1,-1,-1,-1,-1,-1,-1,-1,-1,-1,-1,-1,-1,-1,-1,-1,-1],"loss_changes":[2.6354485E0,3.0446844E0,5.7223873E0,1.2407582E1,3.0875695E0,9.847852E0,2.4365435E0,1.5711541E0,3.808508E0,3.5862315E0,3.252133E0,9.7234917E-1,7.0567675E0,1.211132E0,1.5073359E0,1.8258652E-1,1.1302655E0,0E0,4.86314E0,1.7326536E0,0E0,1.2138327E1,9.580254E0,0E0,0E0,0E0,0E0,2.0593715E0,0E0,0E0,0E0,0E0,0E0,2.2528219E-1,0E0,3.4689674E0,3.5616346E-2,0E0,6.4962673E-1,7.04924E0,1.6060991E0,1.5370512E0,6.4570756E0,2.8016593E0,1.1196771E0,0E0,0E0,0E0,0E0,0E0,0E0,0E0,0E0,0E0,0E0,0E0,0E0,0E0,0E0,0E0,0E0,0E0,0E0,0E0,0E0],"parents":[2147483647,0,0,1,1,2,2,3,3,4,4,5,5,6,6,7,7,8,8,9,9,10,10,11,11,12,12,13,13,14,14,15,15,16,16,18,18,19,19,21,21,22,22,27,27,33,33,35,35,36,36,38,38,39,39,40,40,41,41,42,42,43,43,44,44],"right_children":[2,4,6,8,10,12,14,16,18,20,22,24,26,28,30,32,34,-1,36,38,-1,40,42,-1,-1,-1,-1,44,-1,-1,-1,-1,-1,46,-1,48,50,-1,52,54,56,58,60,62,64,-1,-1,-1,-1,-1,-1,-1,-1,-1,-1,-1,-1,-1,-1,-1,-1,-1,-1,-1,-1],"split_conditions":[8E0,-9.9843544E-1,-9.275417E-1,-9.995463E-1,-9.966589E-1,3E0,7E0,3E0,2E0,5E0,-9.911141E-1,2.91E2,6E0,9E0,2E0,2E0,7E0,-1.4180721E-1,5E0,2E0,1.1313859E-1,5E0,-9.8867756E-1,1.9445199E-1,6.714527E-1,-3.6406615E-1,3.3709222E-1,4E0,-2.836372E-1,2.035272E-1,-1.3945095E-1,-2.4141384E-2,1.04898594E-1,4E0,2.5902916E-2,7E0,8E0,7.804656E-2,5E0,4E0,3E0,7E0,-9.8594815E-1,6.4324905E-16,6E0,-1.1694975E-1,-2.8288388E-1,5.368804E-1,-2.8663088E-2,-4.211188E-3,5.0534535E-2,-3.0486605E-1,-2.304089E-2,6.0447816E-2,4.1780803E-1,-3.6811367E-1,-5.5255298E-2,-3.993127E-1,-9.400782E-2,2.4273273E-1,7.723806E-4,1.7925704E-1,-1.35788E-1,-2.9257515E-1,2.6327135E-2],"split_indices":[2,5,5,5,5,1,0,0,3,1,5,4,0,2,1,1,1,0,0,0,0,2,5,0,0,0,0,1,0,0,0,0,0,1,0,2,0,0,2,0,0,0,5,5,1,0,0,0,0,0,0,0,0,0,0,0,0,0,0,0,0,0,0,0,0],"split_type":[0,0,0,0,0,0,0,0,0,0,0,0,0,0,0,0,0,0,0,0,0,0,0,0,0,0,0,0,0,0,0,0,0,0,0,0,0,0,0,0,0,0,0,0,0,0,0,0,0,0,0,0,0,0,0,0,0,0,0,0,0,0,0,0,0],"sum_hessian":[1.46E3,1.428E3,3.2E1,2.4E1,1.404E3,7E0,2.5E1,1.2E1,1.2E1,1.2E1,1.392E3,3E0,4E0,2.2E1,3E0,3E0,9E0,1E0,1.1E1,9E0,3E0,2.6E1,1.366E3,2E0,1E0,3E0,1E0,1.5E1,7E0,2E0,1E0,1E0,2E0,7E0,2E0,8E0,3E0,1E0,8E0,2E1,6E0,8E0,1.358E3,9E0,6E0,4E0,3E0,7E0,1E0,2E0,1E0,7E0,1E0,1.2E1,8E0,3E0,3E0,5E0,3E0,9E0,1.349E3,3E0,6E0,5E0,1E0],"tree_param":{"num_deleted":"0","num_feature":"7","num_nodes":"65","size_leaf_vector":"1"}},{"base_weights":[2.7058679E-3,-1.409873E-1,1.4280037E-2,-1.817429E-1,9.74283E-1,3.562177E-1,6.7853406E-3,-3.9278263E-1,-3.7110865E-2,4.0793982E-1,-2.7339937E-2,1.8821959E-1,3.3748943E-1,1.4150978E-2,-3.116364E-1,-4.4390625E-1,2.1664935E-1,2.0765623E-2,-7.2420657E-1,5.1000977E-1,-2.6769602E-1,-3.0378667E-1,2.1925004E-2,4.8466843E-1,-4.338005E-1,-5.3267145E-1,5.065414E-2,7.2492284E-1,-1.9622566E-1,-7.216931E-2,5.554157E-1,-2.4049564E-1,-6.2163666E-2,1.0379281E0,-8.1659764E-2,2.2992039E-1,-5.8489406E-1,-3.8355276E-1,3.1337935E-1,3.240431E-1,7.6748747E-3,7.7367365E-2,-7.5047904E-1,-1.2574227E-1,-3.3219618E-1,2.411311E-1,-1.23403914E-1,2.8420737E-1,4.20079E-2,-4.6101734E-2,8.565333E-2,3.786334E-1,-1.9304451E-1,9.70279E-2,4.2058316E-1,2.4298488E-1,-2.335846E-1,-1.3182629E-2,1.9880556E-1,2.9906167E-2,-2.1468164E-1,-2.1828018E-1,-5.2544646E-2,-2.6546989E-2,2.566875E-1,9.9113295E-3,-2.1544782E-2,-3.3861214E-1,1.294359E-1,3.9387226E-2,-2.606718E-1],"categories":[],"categories_nodes":[],"categories_segments":[],"categories_sizes":[],"default_left":[0,0,0,0,0,0,0,0,0,0,0,0,0,0,0,0,0,0,0,0,0,0,0,0,0,0,0,0,0,0,0,0,0,0,0,0,0,0,0,0,0,0,0,0,0,0,0,0,0,0,0,0,0,0,0,0,0,0,0,0,0,0,0,0,0,0,0,0,0,0,0],"id":10,"left_children":[1,3,5,7,9,11,13,15,17,-1,-1,19,-1,21,23,25,27,29,31,33,35,37,39,-1,41,43,45,47,-1,49,51,-1,-1,53,55,57,59,61,-1,63,65,67,69,-1,-1,-1,-1,-1,-1,-1,-1,-1,-1,-1,-1,-1,-1,-1,-1,-1,-1,-1,-1,-1,-1,-1,-1,-1,-1,-1,-1],"loss_changes":[2.4318447E0,5.1315017E0,3.4649417E0,3.2208726E0,1.7668643E0,3.5335526E0,3.1120372E0,1.4358964E0,2.5601065E0,0E0,0E0,3.804257E0,0E0,3.2099261E0,7.7638626E0,1.7829714E0,2.2444472E0,3.0213442E0,3.4082413E-2,4.770054E0,1.8707514E0,3.734874E0,5.4479237E0,0E0,4.752464E0,1.7540455E0,2.7662084E0,2.5764954E-1,0E0,1.559783E0,8.437446E0,0E0,0E0,1.6272936E0,5.6019354E0,6.2170994E-1,6.977148E-1,2.0235887E0,0E0,1.2575535E1,2.4418738E0,5.6116276E0,1.9937344E0,0E0,0E0,0E0,0E0,0E0,0E0,0E0,0E0,0E0,0E0,0E0,0E0,0E0,0E0,0E0,0E0,0E0,0E0,0E0,0E0,0E0,0E0,0E0,0E0,0E0,0E0,0E0,0E0],"parents":[2147483647,0,0,1,1,2,2,3,3,4,4,5,5,6,6,7,7,8,8,11,11,13,13,14,14,15,15,16,16,17,17,18,18,19,19,20,20,21,21,22,22,24,24,25,25,26,26,27,27,29,29,30,30,33,33,34,34,35,35,36,36,37,37,39,39,40,40,41,41,42,42],"right_children":[2,4,6,8,10,12,14,16,18,-1,-1,20,-1,22,24,26,28,30,32,34,36,38,40,-1,42,44,46,48,-1,50,52,-1,-1,54,56,58,60,62,-1,64,66,68,70,-1,-1,-1,-1,-1,-1,-1,-1,-1,-1,-1,-1,-1,-1,-1,-1,-1,-1,-1,-1,-1,-1,-1,-1,-1,-1,-1,-1],"split_conditions":[-9.599327E-1,8E0,-9.383774E-1,-6.8802424E-2,4E0,2.02E2,8E0,7E0,2.636655E-1,4.0793982E-1,-2.7339937E-2,3E0,3.3748943E-1,-9.1237473E-1,-8.7380713E-1,6E0,3E0,5E0,6E0,3E0,2E0,8E0,-8.475409E-1,4.8466843E-1,2E0,6E0,1.91E2,2E0,-1.9622566E-1,1.84E2,1.2020805E-1,-2.4049564E-1,-6.2163666E-2,3E0,1.67E2,6E0,-9.549668E-1,1.62E2,3.1337935E-1,4E0,5E0,-8.56551E-1,-6.7125994E-1,-1.2574227E-1,-3.3219618E-1,2.411311E-1,-1.23403914E-1,2.8420737E-1,4.20079E-2,-4.6101734E-2,8.565333E-2,3.786334E-1,-1.9304451E-1,9.70279E-2,4.2058316E-1,2.4298488E-1,-2.335846E-1,-1.3182629E-2,1.9880556E-1,2.9906167E-2,-2.1468164E-1,-2.1828018E-1,-5.2544646E-2,-2.6546989E-2,2.566875E-1,9.9113295E-3,-2.1544782E-2,-3.3861214E-1,1.294359E-1,3.9387226E-2,-2.606718E-1],"split_indices":[6,0,6,5,1,4,0,2,5,0,0,0,0,6,6,3,3,3,3,1,3,1,6,0,3,2,4,0,0,4,5,0,0,2,4,0,6,4,0,0,3,6,6,0,0,0,0,0,0,0,0,0,0,0,0,0,0,0,0,0,0,0,0,0,0,0,0,0,0,0,0],"split_type":[0,0,0,0,0,0,0,0,0,0,0,0,0,0,0,0,0,0,0,0,0,0,0,0,0,0,0,0,0,0,0,0,0,0,0,0,0,0,0,0,0,0,0,0,0,0,0,0,0,0,0,0,0,0,0,0,0,0,0,0,0,0,0,0,0,0,0,0,0,0,0],"sum_hessian":[1.46E3,1.08E2,1.352E3,1.05E2,3E0,2.8E1,1.324E3,4.2E1,6.3E1,2E0,1E0,2.4E1,4E0,1.295E3,2.9E1,3.9E1,3E0,5.9E1,4E0,1.4E1,1E1,3E1,1.265E3,1E0,2.8E1,3.3E1,6E0,2E0,1E0,5.1E1,8E0,3E0,1E0,7E0,7E0,4E0,6E0,2.9E1,1E0,5.6E1,1.209E3,1.1E1,1.7E1,2.9E1,4E0,2E0,4E0,1E0,1E0,4.2E1,9E0,5E0,3E0,3E0,4E0,3E0,4E0,3E0,1E0,1E0,5E0,1E1,1.9E1,3.2E1,2.4E1,9.17E2,2.92E2,2E0,9E0,2E0,1.5E1],"tree_param":{"num_deleted":"0","num_feature":"7","num_nodes":"71","size_leaf_vector":"1"}},{"base_weights":[2.7657559E-3,3.2969046E-1,1.2622145E-3,1.372281E-1,-9.375162E-3,3.0656835E-1,-1.4984752E-1,-6.5850797E-3,-6.355813E-1,2.0275913E-1,1.5532509E0,6.310684E-2,-5.498419E-1,-1.7127946E-2,1.7287202E-1,-2.5742096E-1,-3.8120866E-2,4.163443E-2,6.3629454E-1,5.1704025E-1,1.3085769E-1,-4.9761313E-1,3.7111202E-1,-7.2233063E-1,-9.489596E-2,-6.8161543E-3,-3.355919E-1,-7.6748914E-1,2.96609E-1,-2.7803853E-2,1.09455466E-1,-6.68854E-2,3.3757272E-1,1.16578825E-2,-1.9097665E-1,3.372338E-3,2.1892017E-1,1.7047085E-2,-2.4456511E-1,1.4477256E-1,-1.07972264E-1,6.0494603E-3,-4.0119696E-2,-1.2395621E-1,4.0359464E-1,-2.2210158E-2,-2.5347507E-1,-4.006154E-2,1.5734816E-1],"categories":[],"categories_nodes":[],"categories_segments":[],"categories_sizes":[],"default_left":[0,0,0,0,0,0,0,0,0,0,0,0,0,0,0,0,0,0,0,0,0,0,0,0,0,0,0,0,0,0,0,0,0,0,0,0,0,0,0,0,0,0,0,0,0,0,0,0,0],"id":11,"left_children":[1,-1,3,5,7,9,11,13,15,17,19,21,23,25,27,-1,-1,29,31,-1,-1,33,35,37,39,41,43,45,47,-1,-1,-1,-1,-1,-1,-1,-1,-1,-1,-1,-1,-1,-1,-1,-1,-1,-1,-1,-1],"loss_changes":[2.4066122E0,0E0,2.1129143E0,5.1989655E0,2.363226E0,8.356012E0,3.4419205E0,2.5571504E0,5.697932E-1,4.374264E0,1.98946E-1,4.847696E0,1.0300765E0,4.188012E0,8.954453E0,0E0,0E0,2.074205E0,7.393023E0,0E0,0E0,7.7030396E-1,2.3148334E0,7.7005243E-1,9.388651E-1,4.2385902E0,5.773099E0,4.20681E-1,6.637653E0,0E0,0E0,0E0,0E0,0E0,0E0,0E0,0E0,0E0,0E0,0E0,0E0,0E0,0E0,0E0,0E0,0E0,0E0,0E0,0E0],"parents":[2147483647,0,0,2,2,3,3,4,4,5,5,6,6,7,7,8,8,9,9,10,10,11,11,12,12,13,13,14,14,17,17,18,18,21,21,22,22,23,23,24,24,25,25,26,26,27,27,28,28],"right_children":[2,-1,4,6,8,10,12,14,16,18,20,22,24,26,28,-1,-1,30,32,-1,-1,34,36,38,40,42,44,46,48,-1,-1,-1,-1,-1,-1,-1,-1,-1,-1,-1,-1,-1,-1,-1,-1,-1,-1,-1,-1],"split_conditions":[1E0,3.2969046E-1,2.6E1,4E0,9E0,2.4E1,1.8E1,7E0,6E0,3E0,5E0,5E0,4E0,3.56E2,6E1,-2.5742096E-1,-3.8120866E-2,6E0,8E0,5.1704025E-1,1.3085769E-1,2E0,4E0,5E0,2E0,5E0,8E0,2E0,2E0,-2.7803853E-2,1.09455466E-1,-6.68854E-2,3.3757272E-1,1.16578825E-2,-1.9097665E-1,3.372338E-3,2.1892017E-1,1.7047085E-2,-2.4456511E-1,1.4477256E-1,-1.07972264E-1,6.0494603E-3,-4.0119696E-2,-1.2395621E-1,4.0359464E-1,-2.2210158E-2,-2.5347507E-1,-4.006154E-2,1.5734816E-1],"split_indices":[3,0,4,0,3,4,4,3,1,0,1,0,3,4,4,0,0,3,4,0,0,3,1,0,1,3,1,0,1,0,0,0,0,0,0,0,0,0,0,0,0,0,0,0,0,0,0,0,0],"split_type":[0,0,0,0,0,0,0,0,0,0,0,0,0,0,0,0,0,0,0,0,0,0,0,0,0,0,0,0,0,0,0,0,0,0,0,0,0,0,0,0,0,0,0,0,0,0,0,0,0],"sum_hessian":[1.46E3,1E0,1.459E3,1.05E2,1.354E3,6.6E1,3.9E1,1.349E3,5E0,6.2E1,4E0,2.6E1,1.3E1,1.275E3,7.4E1,3E0,2E0,4.6E1,1.6E1,3E0,1E0,9E0,1.7E1,9E0,4E0,1.236E3,3.9E1,8E0,6.6E1,3.3E1,1.3E1,6E0,1E1,2E0,7E0,9E0,8E0,1E0,8E0,1E0,3E0,1.02E3,2.16E2,3.8E1,1E0,1E0,7E0,2.3E1,4.3E1],"tree_param":{"num_deleted":"0","num_feature":"7","num_nodes":"49","size_leaf_vector":"1"}},{"base_weights":[2.6025947E-3,1.6131515E-2,-9.256016E-2,-5.4987026E-3,2.7422026E-1,-4.2007315E-1,9.7404756E-2,4.5800246E-3,-7.89929E-1,-8.502993E-2,8.53149E-1,-2.610536E-1,-8.7242156E-1,3.9927277E-1,-1.5410164E-1,4.813209E-2,-6.945901E-2,-4.3097708E-1,-1.2565274E0,4.2198303E-1,-3.365119E-1,-6.370857E-2,1.0622364E0,-3.6710286E-1,-1.5309261E-1,-3.3335447E-1,-1.216433E0,7.514628E-1,-2.7051267E-1,-5.406286E-1,2.1112591E-2,-5.0326936E-2,1.6549501E-1,2.1657042E-1,-1.2806101E-1,5.3457547E-2,-7.628431E-1,-4.124219E-1,-9.981995E-2,1.4816184E0,-1.0064568E-1,-4.8451927E-1,4.7274202E-1,8.6151904E-1,-7.9114896E-1,7.532045E-1,6.0425216E-1,-3.028539E-1,6.148505E-1,3.0863988E-1,-6.7491925E-1,-4.2298397E-1,7.877827E-2,-2.4849783E-1,1.2839856E0,7.7373177E-1,-5.1466674E-1,-4.4580755E-1,-1.264281E-1,-2.7307764E-1,5.7139975E-1,-6.542114E-3,-1.6960882E-1,5.499775E-1,4.1963886E-2,-1.0708801E-2,2.698424E-1,2.604001E-2,-5.7225343E-2,6.5964945E-2,-9.183673E-2,-2.9359618E-1,-6.6244304E-2,6.63385E-1,-6.850865E-2,-1.1483965E-1,1.1591514E-1,-2.3188908E-1,-8.749896E-3,-5.906979E-2,3.0725935E-1,-6.490284E-2,3.8787618E-1,-3.3121485E-1,6.9067955E-2,3.594691E-1,-5.1326714E-2,-1.1268897E-1,8.451121E-2,-3.086529E-2,4.0749195E-1,-3.0940324E-1,-9.782416E-2,-1.968039E-1,1.008816E-1,2.2735444E-1,6.05465E-1,5.9676126E-2,3.747249E-1,-2.2031891E-1,2.046881E-1,1.9609492E-1,-2.1573232E-1,-2.3769757E-1,1.4006594E-1,3.922701E-1,-9.846399E-2],"categories":[],"categories_nodes":[],"categories_segments":[],"categories_sizes":[],"default_left":[0,0,0,0,0,0,0,0,0,0,0,0,0,0,0,0,0,0,0,0,0,0,0,0,0,0,0,0,0,0,0,0,0,0,0,0,0,0,0,0,0,0,0,0,0,0,0,0,0,0,0,0,0,0,0,0,0,0,0,0,0,0,0,0,0,0,0,0,0,0,0,0,0,0,0,0,0,0,0,0,0,0,0,0,0,0,0,0,0,0,0,0,0,0,0,0,0,0,0,0,0,0,0,0,0,0,0],"id":12,"left_children":[1,3,5,7,9,11,13,15,17,19,21,23,25,27,29,31,33,35,37,39,41,43,45,-1,47,49,51,53,55,57,59,61,63,65,67,69,71,-1,-1,73,75,77,79,81,83,85,-1,87,89,-1,91,-1,-1,93,95,97,99,-1,101,103,105,-1,-1,-1,-1,-1,-1,-1,-1,-1,-1,-1,-1,-1,-1,-1,-1,-1,-1,-1,-1,-1,-1,-1,-1,-1,-1,-1,-1,-1,-1,-1,-1,-1,-1,-1,-1,-1,-1,-1,-1,-1,-1,-1,-1,-1,-1],"loss_changes":[1.8824568E0,7.147128E0,1.1364224E1,9.348579E0,2.0662586E1,4.59171E0,8.868449E0,3.7696214E0,1.9707613E0,8.047289E0,7.3524075E0,5.112875E0,2.7470665E0,1.2705544E1,4.3458157E0,8.51313E0,7.285636E0,1.6484537E0,1.9780159E-1,1.1778833E1,5.259625E0,6.0659733E0,7.602463E0,0E0,5.5915933E0,4.416467E0,3.2323608E0,1.8956633E1,5.2423882E0,7.643799E0,7.441046E0,5.877865E0,1.4097626E1,1.2780369E1,4.8656363E0,3.6652774E-1,4.8575306E-1,0E0,0E0,9.238959E0,2.2091608E0,4.705839E0,2.7866073E0,2.1396794E0,1.8521256E0,1.0488366E1,0E0,1.8074875E0,4.4085817E0,0E0,5.340426E-1,0E0,0E0,3.3185315E0,7.355549E0,8.44481E-1,4.7091956E0,0E0,7.405088E0,1.1896662E1,1.1025408E1,0E0,0E0,0E0,0E0,0E0,0E0,0E0,0E0,0E0,0E0,0E0,0E0,0E0,0E0,0E0,0E0,0E0,0E0,0E0,0E0,0E0,0E0,0E0,0E0,0E0,0E0,0E0,0E0,0E0,0E0,0E0,0E0,0E0,0E0,0E0,0E0,0E0,0E0,0E0,0E0,0E0,0E0,0E0,0E0,0E0,0E0],"parents":[2147483647,0,0,1,1,2,2,3,3,4,4,5,5,6,6,7,7,8,8,9,9,10,10,11,11,12,12,13,13,14,14,15,15,16,16,17,17,18,18,19,19,20,20,21,21,22,22,24,24,25,25,26,26,27,27,28,28,29,29,30,30,31,31,32,32,33,33,34,34,35,35,36,36,39,39,40,40,41,41,42,42,43,43,44,44,45,45,47,47,48,48,50,50,53,53,54,54,55,55,56,56,58,58,59,59,60,60],"right_children":[2,4,6,8,10,12,14,16,18,20,22,24,26,28,30,32,34,36,38,40,42,44,46,-1,48,50,52,54,56,58,60,62,64,66,68,70,72,-1,-1,74,76,78,80,82,84,86,-1,88,90,-1,92,-1,-1,94,96,98,100,-1,102,104,106,-1,-1,-1,-1,-1,-1,-1,-1,-1,-1,-1,-1,-1,-1,-1,-1,-1,-1,-1,-1,-1,-1,-1,-1,-1,-1,-1,-1,-1,-1,-1,-1,-1,-1,-1,-1,-1,-1,-1,-1,-1,-1,-1,-1,-1,-1],"split_conditions":[9.3985605E-1,8.543222E-1,9.7784835E-1,8.4061843E-1,4E0,9.700639E-1,9.1E1,4E0,5.416278E-1,2E0,6.5E1,7.2E1,2E0,4E0,2E0,2.595118E-1,-8.653073E-1,6E0,4E0,2E0,9.307239E-1,2E0,5E0,-3.6710286E-1,5E0,2E0,6E0,3E0,2E0,2E0,4E0,2.82E2,-9.587178E-1,-9.1237473E-1,-9.1060466E-1,5E0,7E0,-4.124219E-1,-9.981995E-2,3E0,6E0,5E0,2E0,2E0,6E0,1.17E2,6.0425216E-1,5E0,3E0,3.0863988E-1,2E0,-4.2298397E-1,7.877827E-2,8.7E1,3E0,8.6E1,6E0,-4.4580755E-1,9.6E1,1E2,6E0,-6.542114E-3,-1.6960882E-1,5.499775E-1,4.1963886E-2,-1.0708801E-2,2.698424E-1,2.604001E-2,-5.7225343E-2,6.5964945E-2,-9.183673E-2,-2.9359618E-1,-6.6244304E-2,6.63385E-1,-6.850865E-2,-1.1483965E-1,1.1591514E-1,-2.3188908E-1,-8.749896E-3,-5.906979E-2,3.0725935E-1,-6.490284E-2,3.8787618E-1,-3.3121485E-1,6.9067955E-2,3.594691E-1,-5.1326714E-2,-1.1268897E-1,8.451121E-2,-3.086529E-2,4.0749195E-1,-3.0940324E-1,-9.782416E-2,-1.968039E-1,1.008816E-1,2.2735444E-1,6.05465E-1,5.9676126E-2,3.747249E-1,-2.2031891E-1,2.046881E-1,1.9609492E-1,-2.1573232E-1,-2.3769757E-1,1.4006594E-1,3.922701E-1,-9.846399E-2],"split_indices":[5,5,5,5,0,5,4,0,6,3,4,4,0,2,2,6,6,2,2,2,5,1,1,0,1,2,2,0,0,0,3,4,5,6,5,0,2,0,0,1,2,3,0,2,2,4,0,0,0,0,3,0,0,4,2,4,0,0,4,4,3,0,0,0,0,0,0,0,0,0,0,0,0,0,0,0,0,0,0,0,0,0,0,0,0,0,0,0,0,0,0,0,0,0,0,0,0,0,0,0,0,0,0,0,0,0,0],"split_type":[0,0,0,0,0,0,0,0,0,0,0,0,0,0,0,0,0,0,0,0,0,0,0,0,0,0,0,0,0,0,0,0,0,0,0,0,0,0,0,0,0,0,0,0,0,0,0,0,0,0,0,0,0,0,0,0,0,0,0,0,0,0,0,0,0,0,0,0,0,0,0,0,0,0,0,0,0,0,0,0,0,0,0,0,0,0,0,0,0,0,0,0,0,0,0,0,0,0,0,0,0,0,0,0,0,0,0],"sum_hessian":[1.46E3,1.279E3,1.81E2,1.181E3,9.8E1,6.6E1,1.15E2,1.167E3,1.4E1,6.1E1,3.7E1,5E1,1.6E1,5.2E1,6.3E1,7.35E2,4.32E2,9E0,5E0,2E1,4.1E1,7E0,3E1,4E0,4.6E1,7E0,9E0,3.4E1,1.8E1,1.9E1,4.4E1,4E2,3.35E2,7.3E1,3.59E2,4E0,5E0,4E0,1E0,6E0,1.4E1,3.5E1,6E0,3E0,4E0,2.4E1,6E0,3.9E1,7E0,1E0,6E0,8E0,1E0,1.2E1,2.2E1,3E0,1.5E1,5E0,1.4E1,2.9E1,1.5E1,3.8E2,2E1,4E0,3.31E2,5.4E1,1.9E1,8.1E1,2.78E2,3E0,1E0,3E0,2E0,4E0,2E0,9E0,5E0,2.1E1,1.4E1,3E0,3E0,1E0,2E0,3E0,1E0,1.6E1,8E0,3.5E1,4E0,4E0,3E0,2E0,4E0,7E0,5E0,1.4E1,8E0,2E0,1E0,1.3E1,2E0,6E0,8E0,1.7E1,1.2E1,8E0,7E0],"tree_param":{"num_deleted":"0","num_feature":"7","num_nodes":"107","size_leaf_vector":"1"}},{"base_weights":[3.017892E-3,2.8121826E-1,1.7358575E-3,-5.2759297E-2,2.2491822E-2,-6.0476236E-2,4.5741755E-1,6.659888E-1,1.5716098E-2,2.8771842E-2,-2.2057885E-1,9.5015097E-1,-1.2254823E-1,2.0790286E-2,-5.1306355E-1,5.2817833E-1,8.444062E-3,-2.8584337E-1,1.3519731E-1,-2.5910854E-2,1.4425004E0,-3.9773196E-2,7.618487E-2,1.310956E-1,-3.5503253E-1,9.984212E-3,-2.65E-1,-1.0224979E-1,4.8811372E-2,-1.2692592E-1,1.07137814E-1,1.2873602E-2,-1.8946743E-2,4.8750845E-1,7.9479255E-2,-2.291214E-2,8.454004E-2,1.01638936E-1,-2.4413192E-3,1.8995099E-1,-1.7461061E-1],"categories":[],"categories_nodes":[],"categories_segments":[],"categories_sizes":[],"default_left":[0,0,0,0,0,0,0,0,0,0,0,0,0,0,0,0,0,0,0,0,0,0,0,0,0,0,0,0,0,0,0,0,0,0,0,0,0,0,0,0,0],"id":13,"left_children":[1,-1,3,5,7,9,-1,11,13,15,17,19,-1,21,23,-1,25,27,29,31,33,35,37,39,-1,-1,-1,-1,-1,-1,-1,-1,-1,-1,-1,-1,-1,-1,-1,-1,-1],"loss_changes":[1.7485086E0,0E0,1.652592E0,4.9980702E0,4.60258E0,5.750464E0,0E0,3.7467332E0,2.8225834E0,9.102997E0,3.3822622E0,4.3624477E0,0E0,3.48876E0,4.4734473E0,0E0,5.721627E0,3.0646248E0,3.0007763E0,1.296336E-2,8.591156E-1,5.8711E0,1.20269985E1,2.5167959E0,0E0,0E0,0E0,0E0,0E0,0E0,0E0,0E0,0E0,0E0,0E0,0E0,0E0,0E0,0E0,0E0,0E0],"parents":[2147483647,0,0,2,2,3,3,4,4,5,5,7,7,8,8,9,9,10,10,11,11,13,13,14,14,16,16,17,17,18,18,19,19,20,20,21,21,22,22,23,23],"right_children":[2,-1,4,6,8,10,-1,12,14,16,18,20,-1,22,24,-1,26,28,30,32,34,36,38,40,-1,-1,-1,-1,-1,-1,-1,-1,-1,-1,-1,-1,-1,-1,-1,-1,-1],"split_conditions":[1E0,2.8121826E-1,2E0,9E0,4E0,4E0,4.5741755E-1,6E0,9E0,-9.990741E-1,6E0,3E0,-1.2254823E-1,3E0,4E0,5.2817833E-1,9.962982E-1,7E0,2E0,2E0,8E0,3.26E2,2E0,3E0,-3.5503253E-1,9.984212E-3,-2.65E-1,-1.0224979E-1,4.8811372E-2,-1.2692592E-1,1.07137814E-1,1.2873602E-2,-1.8946743E-2,4.8750845E-1,7.9479255E-2,-2.291214E-2,8.454004E-2,1.01638936E-1,-2.4413192E-3,1.8995099E-1,-1.7461061E-1],"split_indices":[3,0,2,1,4,1,0,2,1,6,3,2,0,3,2,0,6,1,0,0,0,4,0,3,0,0,0,0,0,0,0,0,0,0,0,0,0,0,0,0,0],"split_type":[0,0,0,0,0,0,0,0,0,0,0,0,0,0,0,0,0,0,0,0,0,0,0,0,0,0,0,0,0,0,0,0,0,0,0,0,0,0,0,0,0],"sum_hessian":[1.46E3,1E0,1.459E3,4.02E2,1.057E3,4.01E2,1E0,1E1,1.047E3,2.58E2,1.43E2,8E0,2E0,1.038E3,9E0,2E0,2.56E2,1.21E2,2.2E1,3E0,5E0,4.96E2,5.42E2,5E0,4E0,2.5E2,6E0,1.08E2,1.3E1,6E0,1.6E1,1E0,2E0,4E0,1E0,4.46E2,5E1,1.31E2,4.11E2,3E0,2E0],"tree_param":{"num_deleted":"0","num_feature":"7","num_nodes":"41","size_leaf_vector":"1"}},{"base_weights":[2.9325394E-3,2.0454379E-2,-5.625179E-2,3.4860436E-2,-2.5083944E-1,-1.0316866E-1,5.8263147E-1,2.1235168E-2,5.421299E-1,-3.711766E-1,5.326228E-1,-2.9240015E-1,2.3198925E-2,8.115122E-1,-7.0742977E-1,3.408357E-2,-3.1106165E-1,-1.8646838E-1,1.1002328E0,-6.955539E-1,-9.1467544E-2,7.3982395E-2,3.817088E-1,-3.9745772E-1,2.7902496E-1,1.481348E-1,-3.890488E-1,1.7452409E0,4.3589592E-2,7.9863384E-2,-3.3621415E-1,4.5362327E-2,-2.900221E-1,-1.6382083E-1,-5.6229025E-1,-4.831705E-1,2.4021251E-1,4.7542414E-1,4.176252E-1,2.1165912E-1,-9.593164E-1,3.764855E-1,-4.164069E-1,-1.7282818E-1,3.1921643E-1,3.8857418E-1,-4.4021747E-1,1.081649E0,-4.7599912E-1,-4.282808E-1,2.2294821E-1,-9.180552E-1,-8.376775E-2,6.823203E-1,-7.121316E-2,7.354586E-1,-3.9427724E-1,-5.418888E-2,1.7104574E-2,-1.8014202E-1,1.6725332E-2,-1.01038754E-1,6.0099456E-2,-1.9202112E-1,6.732774E-2,-1.4336844E-2,-2.7198127E-1,-1.3314748E-1,2.0795625E-1,-1.290283E-1,2.3156424E-1,-1.668583E-1,3.494732E-1,-3.276298E-1,-6.646532E-2,3.4549165E-1,-4.651378E-2,-3.3560506E-1,-9.170407E-3,4.6830494E-2,1.4575136E-1,5.5009854E-1,-8.015271E-2,-1.9422962E-1,-7.654179E-2,1.7305309E-1,6.201741E-1,8.471442E-2,-2.0277114E-1,-5.1155724E-2,-3.6701304E-1,7.4930966E-2,-2.9604542E-1,-1.4140435E-1,-3.4168348E-1,-1.317187E-1,2.2636813E-1,-1.5488946E-1,1.22843534E-1,1.3333404E-2,2.691303E-1,-2.100409E-1,2.5984759E-2],"categories":[],"categories_nodes":[],"categories_segments":[],"categories_sizes":[],"default_left":[0,0,0,0,0,0,0,0,0,0,0,0,0,0,0,0,0,0,0,0,0,0,0,0,0,0,0,0,0,0,0,0,0,0,0,0,0,0,0,0,0,0,0,0,0,0,0,0,0,0,0,0,0,0,0,0,0,0,0,0,0,0,0,0,0,0,0,0,0,0,0,0,0,0,0,0,0,0,0,0,0,0,0,0,0,0,0,0,0,0,0,0,0,0,0,0,0,0,0,0,0,0,0],"id":14,"left_children":[1,3,5,7,9,11,13,15,17,19,21,23,25,27,29,31,33,35,37,39,41,43,-1,45,47,49,51,53,55,-1,-1,57,59,61,63,65,67,-1,69,71,73,75,77,-1,79,81,83,85,87,89,91,93,95,-1,97,99,101,-1,-1,-1,-1,-1,-1,-1,-1,-1,-1,-1,-1,-1,-1,-1,-1,-1,-1,-1,-1,-1,-1,-1,-1,-1,-1,-1,-1,-1,-1,-1,-1,-1,-1,-1,-1,-1,-1,-1,-1,-1,-1,-1,-1,-1,-1],"loss_changes":[1.5162344E0,4.4172783E0,1.007156E1,7.3978105E0,5.5716357E0,7.467554E0,7.365299E0,4.4722123E0,1.1590879E1,4.4729424E0,2.620064E0,7.6149693E0,9.740483E0,1.4264552E1,1.9079082E0,3.694254E0,1.350538E0,1.7618263E0,4.629898E0,5.706689E0,4.4143496E0,1.1404237E0,0E0,3.7337704E0,1.2634872E1,6.348409E0,7.028905E0,8.812723E0,3.9253325E0,0E0,0E0,2.5752926E0,3.683232E0,1.7051916E0,1.0003204E0,1.4315137E0,2.1667647E0,0E0,2.734456E0,5.039661E0,1.5213718E0,5.122776E0,4.5722194E0,0E0,6.0051978E-2,6.175606E0,3.7082539E0,3.782874E0,1.8585048E0,3.2754612E0,4.432261E0,1.0419302E0,8.9690485E0,0E0,8.532588E-1,5.1861405E-1,1.2373269E0,0E0,0E0,0E0,0E0,0E0,0E0,0E0,0E0,0E0,0E0,0E0,0E0,0E0,0E0,0E0,0E0,0E0,0E0,0E0,0E0,0E0,0E0,0E0,0E0,0E0,0E0,0E0,0E0,0E0,0E0,0E0,0E0,0E0,0E0,0E0,0E0,0E0,0E0,0E0,0E0,0E0,0E0,0E0,0E0,0E0,0E0],"parents":[2147483647,0,0,1,1,2,2,3,3,4,4,5,5,6,6,7,7,8,8,9,9,10,10,11,11,12,12,13,13,14,14,15,15,16,16,17,17,18,18,19,19,20,20,21,21,23,23,24,24,25,25,26,26,27,27,28,28,31,31,32,32,33,33,34,34,35,35,36,36,38,38,39,39,40,40,41,41,42,42,44,44,45,45,46,46,47,47,48,48,49,49,50,50,51,51,52,52,54,54,55,55,56,56],"right_children":[2,4,6,8,10,12,14,16,18,20,22,24,26,28,30,32,34,36,38,40,42,44,-1,46,48,50,52,54,56,-1,-1,58,60,62,64,66,68,-1,70,72,74,76,78,-1,80,82,84,86,88,90,92,94,96,-1,98,100,102,-1,-1,-1,-1,-1,-1,-1,-1,-1,-1,-1,-1,-1,-1,-1,-1,-1,-1,-1,-1,-1,-1,-1,-1,-1,-1,-1,-1,-1,-1,-1,-1,-1,-1,-1,-1,-1,-1,-1,-1,-1,-1,-1,-1,-1,-1],"split_conditions":[5E0,9.899325E-1,9.911141E-1,9.7784835E-1,4E0,6E0,5E0,9.53681E-1,2E0,9.979172E-1,5E0,6E0,7.469721E-1,6E0,3E0,3.56E2,3E0,3E0,9.8594815E-1,2E0,9.1E1,2E0,3.817088E-1,-9.9167734E-1,3E0,-9.275417E-1,8.674564E-1,5E0,9.2E1,7.9863384E-2,-3.3621415E-1,-9.866579E-1,-5.1619668E-2,2E0,5E0,3E0,2E0,4.7542414E-1,2E0,3E0,5E0,3E0,2E0,-1.7282818E-1,4E0,1.77E2,3E0,3.7371972E-1,4.8E1,2.9E2,8E0,2E0,5E0,6.823203E-1,6E0,2E0,7E0,-5.418888E-2,1.7104574E-2,-1.8014202E-1,1.6725332E-2,-1.01038754E-1,6.0099456E-2,-1.9202112E-1,6.732774E-2,-1.4336844E-2,-2.7198127E-1,-1.3314748E-1,2.0795625E-1,-1.290283E-1,2.3156424E-1,-1.668583E-1,3.494732E-1,-3.276298E-1,-6.646532E-2,3.4549165E-1,-4.651378E-2,-3.3560506E-1,-9.170407E-3,4.6830494E-2,1.4575136E-1,5.5009854E-1,-8.015271E-2,-1.9422962E-1,-7.654179E-2,1.7305309E-1,6.201741E-1,8.471442E-2,-2.0277114E-1,-5.1155724E-2,-3.6701304E-1,7.4930966E-2,-2.9604542E-1,-1.4140435E-1,-3.4168348E-1,-1.317187E-1,2.2636813E-1,-1.5488946E-1,1.22843534E-1,1.3333404E-2,2.691303E-1,-2.100409E-1,2.5984759E-2],"split_indices":[3,5,5,5,3,3,0,5,1,5,1,1,5,3,1,4,0,0,5,0,4,0,0,6,0,5,5,1,4,0,0,6,5,0,1,2,3,0,2,2,1,1,1,0,1,4,0,6,4,4,0,0,0,0,1,0,3,0,0,0,0,0,0,0,0,0,0,0,0,0,0,0,0,0,0,0,0,0,0,0,0,0,0,0,0,0,0,0,0,0,0,0,0,0,0,0,0,0,0,0,0,0,0],"split_type":[0,0,0,0,0,0,0,0,0,0,0,0,0,0,0,0,0,0,0,0,0,0,0,0,0,0,0,0,0,0,0,0,0,0,0,0,0,0,0,0,0,0,0,0,0,0,0,0,0,0,0,0,0,0,0,0,0,0,0,0,0,0,0,0,0,0,0,0,0,0,0,0,0,0,0,0,0,0,0,0,0,0,0,0,0,0,0,0,0,0,0,0,0,0,0,0,0,0,0,0,0,0,0],"sum_hessian":[1.46E3,1.127E3,3.33E2,1.071E3,5.6E1,3.11E2,2.2E1,1.044E3,2.7E1,4.9E1,7E0,1.24E2,1.87E2,1.9E1,3E0,1.006E3,3.8E1,1.2E1,1.5E1,2.2E1,2.7E1,5E0,2E0,1.05E2,1.9E1,1.44E2,4.3E1,8E0,1.1E1,1E0,2E0,9.73E2,3.3E1,2.5E1,1.3E1,7E0,5E0,8E0,7E0,5E0,1.7E1,1.1E1,1.6E1,1E0,4E0,5E0,1E2,9E0,1E1,1.6E1,1.28E2,1.5E1,2.8E1,6E0,2E0,4E0,7E0,4.7E1,9.26E2,1.7E1,1.6E1,1.7E1,8E0,1.2E1,1E0,4E0,3E0,2E0,3E0,2E0,5E0,3E0,2E0,1.4E1,3E0,4E0,7E0,5E0,1.1E1,3E0,1E0,1E0,4E0,4.6E1,5.4E1,7E0,2E0,2E0,8E0,1.3E1,3E0,1.26E2,2E0,6E0,9E0,2E1,8E0,1E0,1E0,1E0,3E0,4E0,3E0],"tree_param":{"num_deleted":"0","num_feature":"7","num_nodes":"103","size_leaf_vector":"1"}},{"base_weights":[2.3836535E-3,7.708474E-2,-1.1636115E-2,2.3984121E-2,9.656964E-1,-5.892114E-1,6.2567065E-3,-4.300244E-1,9.8324224E-2,1.5031952E0,-1.9494072E-1,-1.3528167E-1,-1.3252901E0,7.678897E-1,4.7662776E-4,-6.364892E-1,-9.518932E-2,7.1634734E-1,3.3075735E-2,-2.846346E-2,1.7148141E0,1.6325305E-1,-2.607234E-1,-4.1403288E-1,3.7530738E-1,-1.6593115E0,4.5254833E-1,1.3291578E0,-7.976994E-1,-8.215361E-1,1.0278759E-2,-2.9822513E-1,-1.0643241E0,3.8602853E-1,-4.4420403E-1,7.159315E-1,4.7772798E-1,-1.21966965E-1,2.501068E-1,4.7862053E-1,7.082419E-1,-4.458753E-1,2.0845264E-1,1.2666686E0,-2.8148463E-1,-5.350073E-1,-2.5613952E-2,-2.6718783E-1,7.7796423E-1,-1.2957788E-2,-3.4600693E-1,-4.8746642E-1,-3.377065E-1,1.4928225E-1,-1.1643248E-2,-1.7226106E-1,4.106305E-1,-4.397743E-1,-1.5905619E-1,2.2317716E-1,-2.1051723E-1,-1.7822956E-1,1.0958671E-3,2.4930464E-1,2.1407902E-2,-5.1549E-2,4.6925044E-1,4.232704E-2,2.735704E-1,-5.8701877E-2,3.7522516E-1,1.6729115E-1,-2.7257556E-1,6.122893E-1,9.8474555E-2,-3.217752E-1,2.601428E-1,-3.1908172E-1,3.1830987E-1,-1.9190063E-1,3.56993E-1,-9.407318E-2,9.1854565E-2,-3.264833E-1,-1.5707616E-3],"categories":[],"categories_nodes":[],"categories_segments":[],"categories_sizes":[],"default_left":[0,0,0,0,0,0,0,0,0,0,0,0,0,0,0,0,0,0,0,0,0,0,0,0,0,0,0,0,0,0,0,0,0,0,0,0,0,0,0,0,0,0,0,0,0,0,0,0,0,0,0,0,0,0,0,0,0,0,0,0,0,0,0,0,0,0,0,0,0,0,0,0,0,0,0,0,0,0,0,0,0,0,0,0,0],"id":15,"left_children":[1,3,5,7,9,11,13,15,17,19,21,23,25,27,29,31,33,35,37,-1,39,-1,-1,41,43,45,-1,47,49,51,53,55,57,59,61,-1,63,65,67,69,-1,-1,71,73,75,-1,-1,77,-1,-1,-1,-1,79,81,83,-1,-1,-1,-1,-1,-1,-1,-1,-1,-1,-1,-1,-1,-1,-1,-1,-1,-1,-1,-1,-1,-1,-1,-1,-1,-1,-1,-1,-1,-1],"loss_changes":[1.5309905E0,1.0876766E1,1.2725395E1,7.433759E0,8.402967E0,1.2183448E1,5.2603803E0,2.0824947E0,7.597745E0,3.2063408E0,2.9642656E0,3.5712452E0,1.575469E1,8.968706E0,9.572668E0,2.4322944E0,2.354853E0,6.0332193E0,5.8181477E0,0E0,5.258642E0,0E0,0E0,1.0988855E1,5.6254983E0,2.3858566E0,0E0,1.4817971E1,7.5522053E-1,4.8928623E0,3.5791926E0,6.3065996E0,9.388237E-1,2.8578386E0,5.392202E-1,0E0,2.381301E0,8.760425E0,5.065896E0,2.3273063E0,0E0,0E0,4.797236E0,2.236515E0,6.3821535E0,0E0,0E0,5.3597956E0,0E0,0E0,0E0,0E0,5.374216E0,1.1715609E1,6.9961805E0,0E0,0E0,0E0,0E0,0E0,0E0,0E0,0E0,0E0,0E0,0E0,0E0,0E0,0E0,0E0,0E0,0E0,0E0,0E0,0E0,0E0,0E0,0E0,0E0,0E0,0E0,0E0,0E0,0E0,0E0],"parents":[2147483647,0,0,1,1,2,2,3,3,4,4,5,5,6,6,7,7,8,8,9,9,10,10,11,11,12,12,13,13,14,14,15,15,16,16,17,17,18,18,20,20,23,23,24,24,25,25,27,27,28,28,29,29,30,30,31,31,32,32,33,33,34,34,36,36,37,37,38,38,39,39,42,42,43,43,44,44,47,47,52,52,53,53,54,54],"right_children":[2,4,6,8,10,12,14,16,18,20,22,24,26,28,30,32,34,36,38,-1,40,-1,-1,42,44,46,-1,48,50,52,54,56,58,60,62,-1,64,66,68,70,-1,-1,72,74,76,-1,-1,78,-1,-1,-1,-1,80,82,84,-1,-1,-1,-1,-1,-1,-1,-1,-1,-1,-1,-1,-1,-1,-1,-1,-1,-1,-1,-1,-1,-1,-1,-1,-1,-1,-1,-1,-1,-1],"split_conditions":[-8.758917E-1,-8.8805735E-1,-8.3592546E-1,2.54E2,4E0,4E0,-8.263542E-1,3E0,2.58E2,2E0,3E0,3E0,9E0,7E0,-8.0647993E-1,2E0,5E0,2E0,4E0,-2.846346E-2,-8.8406754E-1,1.6325305E-1,-2.607234E-1,2E0,2E0,7E0,4.5254833E-1,3E0,2E0,3E0,-5.5243534E-1,5E0,5E0,4E0,-9.033558E-1,7.159315E-1,3E0,9E0,2.93E2,4E0,7.082419E-1,-4.458753E-1,5.123714E-1,2.42E2,2.44E2,-5.350073E-1,-2.5613952E-2,6E0,7.7796423E-1,-1.2957788E-2,-3.4600693E-1,-4.8746642E-1,6E0,2E0,-5.4524046E-1,-1.7226106E-1,4.106305E-1,-4.397743E-1,-1.5905619E-1,2.2317716E-1,-2.1051723E-1,-1.7822956E-1,1.0958671E-3,2.4930464E-1,2.1407902E-2,-5.1549E-2,4.6925044E-1,4.232704E-2,2.735704E-1,-5.8701877E-2,3.7522516E-1,1.6729115E-1,-2.7257556E-1,6.122893E-1,9.8474555E-2,-3.217752E-1,2.601428E-1,-3.1908172E-1,3.1830987E-1,-1.9190063E-1,3.56993E-1,-9.407318E-2,9.1854565E-2,-3.264833E-1,-1.5707616E-3],"split_indices":[5,5,5,4,1,2,5,3,4,0,2,2,0,1,5,3,3,1,1,0,5,0,0,1,1,3,0,2,2,0,5,1,2,0,5,0,3,2,4,2,0,0,6,4,4,0,0,1,0,0,0,0,2,3,5,0,0,0,0,0,0,0,0,0,0,0,0,0,0,0,0,0,0,0,0,0,0,0,0,0,0,0,0,0,0],"split_type":[0,0,0,0,0,0,0,0,0,0,0,0,0,0,0,0,0,0,0,0,0,0,0,0,0,0,0,0,0,0,0,0,0,0,0,0,0,0,0,0,0,0,0,0,0,0,0,0,0,0,0,0,0,0,0,0,0,0,0,0,0,0,0,0,0,0,0,0,0,0,0,0,0,0,0,0,0,0,0,0,0,0,0,0,0],"sum_hessian":[1.46E3,2.3E2,1.23E3,2.18E2,1.2E1,3.6E1,1.194E3,3E1,1.88E2,8E0,4E0,2.3E1,1.3E1,8E0,1.186E3,1.8E1,1.2E1,1.7E1,1.71E2,1E0,7E0,2E0,2E0,1.5E1,8E0,1.2E1,1E0,6E0,2E0,1.3E1,1.173E3,1.1E1,7E0,5E0,7E0,1E0,1.6E1,1E2,7.1E1,3E0,4E0,5E0,1E1,3E0,5E0,1.1E1,1E0,3E0,3E0,1E0,1E0,4E0,9E0,1.59E2,1.014E3,1E1,1E0,3E0,4E0,4E0,1E0,5E0,2E0,8E0,8E0,9.8E1,2E0,6.2E1,9E0,2E0,1E0,8E0,2E0,1E0,2E0,3E0,2E0,2E0,1E0,8E0,1E0,4E1,1.19E2,5E0,1.009E3],"tree_param":{"num_deleted":"0","num_feature":"7","num_nodes":"85","size_leaf_vector":"1"}},{"base_weights":[2.9345178E-3,2.8327383E-2,-4.1069444E-2,4.312245E-1,1.9874828E-2,1.7573483E-1,-7.7350184E-2,9.3250424E-1,1.2813352E-1,-2.8080824E-1,3.9193768E-2,9.228456E-2,1.1478488E0,-9.68542E-2,2.1518709E-1,-4.5437345E-1,4.73439E-1,-1.8811369E-1,5.284409E-1,-1.8150018E-1,-5.115279E-1,1.21933885E-1,-5.750319E-3,-1.2809192E-1,2.8204137E-1,-8.666829E-2,1.4929763E0,-5.6234267E-2,-3.5711282E-1,5.4971904E-2,4.7561845E-1,-2.5168324E-1,4.721518E-2,-3.9564994E-1,8.689903E-2,2.1588346E-1,-6.411188E-2,1.0795391E0,-3.1292334E-1,2.0842806E-1,-7.688822E-1,3.1031704E-2,3.0163094E-1,-2.9125205E-1,3.205694E-2,-3.0441096E-1,1.455361E-1,7.1106946E-1,-4.732902E-2,4.8513904E-2,5.356092E-1,-9.2204385E-2,8.7529767E-1,-4.6835196E-1,9.1569227E-1,-1.6521294E-1,7.076733E-1,9.248532E-2,-1.7942812E-1,-1.0172582E-2,4.3859738E-1,-1.5906756E-1,-1.6227677E-2,2.0431222E-1,-1.00098185E-1,-2.640565E-1,6.832266E-2,-3.2301235E-1,2.475815E-2,1.1271982E-1,-2.2413784E-1,-3.2376256E-2,-2.685484E-1,-2.964151E-2,2.3688905E-2,-1.5526327E-1,9.440386E-2,1.5087251E-1,-1.7949468E-1,2.908922E-1,-3.1028882E-2,1.0374179E-1,-2.4830486E-1,3.556233E-2,-4.7562394E-2,4.3005046E-1,-3.23673E-2,-6.978677E-2,-3.822059E-1,4.3472037E-1,-1.8267153E-1,6.1894737E-2,-1.3831575E-1,6.248778E-3,3.6527973E-1],"categories":[],"categories_nodes":[],"categories_segments":[],"categories_sizes":[],"default_left":[0,0,0,0,0,0,0,0,0,0,0,0,0,0,0,0,0,0,0,0,0,0,0,0,0,0,0,0,0,0,0,0,0,0,0,0,0,0,0,0,0,0,0,0,0,0,0,0,0,0,0,0,0,0,0,0,0,0,0,0,0,0,0,0,0,0,0,0,0,0,0,0,0,0,0,0,0,0,0,0,0,0,0,0,0,0,0,0,0,0,0,0,0,0,0],"id":16,"left_children":[1,3,5,7,9,11,13,15,17,19,21,23,25,27,29,31,-1,33,35,37,39,41,43,45,47,-1,49,51,53,55,-1,-1,-1,57,-1,-1,-1,59,61,63,65,67,69,71,73,75,77,79,81,-1,-1,83,85,87,89,91,93,-1,-1,-1,-1,-1,-1,-1,-1,-1,-1,-1,-1,-1,-1,-1,-1,-1,-1,-1,-1,-1,-1,-1,-1,-1,-1,-1,-1,-1,-1,-1,-1,-1,-1,-1,-1,-1,-1],"loss_changes":[1.6336654E0,3.1483374E0,4.2218065E0,2.7672486E0,5.291276E0,6.140556E0,2.6397357E0,6.9848886E0,1.7451559E0,1.167335E0,3.1801715E0,3.0470188E0,3.4064693E0,4.536316E0,6.2791615E0,8.378281E-1,0E0,9.0785396E-1,1.0050461E0,6.967004E0,3.1247973E0,4.9074316E0,6.0000277E0,1.6846609E0,5.544711E0,0E0,1.6575079E0,1.2612442E1,8.64084E0,3.997221E0,0E0,0E0,0E0,1.0394255E0,0E0,0E0,0E0,1.7529359E0,2.0523643E0,1.5082263E0,1.5316195E0,1.1554613E1,8.12991E0,7.0998955E0,3.0216687E0,2.933785E0,4.022545E0,3.6805925E0,7.3422585E0,0E0,0E0,5.0656476E0,7.8381386E0,9.95929E0,4.9482594E0,2.403293E0,2.426314E0,0E0,0E0,0E0,0E0,0E0,0E0,0E0,0E0,0E0,0E0,0E0,0E0,0E0,0E0,0E0,0E0,0E0,0E0,0E0,0E0,0E0,0E0,0E0,0E0,0E0,0E0,0E0,0E0,0E0,0E0,0E0,0E0,0E0,0E0,0E0,0E0,0E0,0E0],"parents":[2147483647,0,0,1,1,2,2,3,3,4,4,5,5,6,6,7,7,8,8,9,9,10,10,11,11,12,12,13,13,14,14,15,15,17,17,18,18,19,19,20,20,21,21,22,22,23,23,24,24,26,26,27,27,28,28,29,29,33,33,37,37,38,38,39,39,40,40,41,41,42,42,43,43,44,44,45,45,46,46,47,47,48,48,51,51,52,52,53,53,54,54,55,55,56,56],"right_children":[2,4,6,8,10,12,14,16,18,20,22,24,26,28,30,32,-1,34,36,38,40,42,44,46,48,-1,50,52,54,56,-1,-1,-1,58,-1,-1,-1,60,62,64,66,68,70,72,74,76,78,80,82,-1,-1,84,86,88,90,92,94,-1,-1,-1,-1,-1,-1,-1,-1,-1,-1,-1,-1,-1,-1,-1,-1,-1,-1,-1,-1,-1,-1,-1,-1,-1,-1,-1,-1,-1,-1,-1,-1,-1,-1,-1,-1,-1,-1],"split_conditions":[4E0,-9.970012E-1,-9.1758364E-1,3E0,-9.599327E-1,2.93E2,7E0,2E0,2E0,1.7129314E-1,-2.678143E-1,3E0,3E0,3.3E2,3.47E2,2E0,4.73439E-1,1.86E2,7E0,1.74E2,2E0,-5.4884297E-1,-6.450845E-2,4E0,3E0,-8.666829E-2,2E0,3.22E2,7E0,6E0,4.7561845E-1,-2.5168324E-1,4.721518E-2,1.83E2,8.689903E-2,2.1588346E-1,-6.411188E-2,2E0,4E0,2E0,6E0,-8.013611E-1,7E0,3E0,-5.7377225E-1,5E0,4E0,5E0,2.77E2,4.8513904E-2,5.356092E-1,2E0,4E0,5E0,3E0,3E0,3E0,9.248532E-2,-1.7942812E-1,-1.0172582E-2,4.3859738E-1,-1.5906756E-1,-1.6227677E-2,2.0431222E-1,-1.00098185E-1,-2.640565E-1,6.832266E-2,-3.2301235E-1,2.475815E-2,1.1271982E-1,-2.2413784E-1,-3.2376256E-2,-2.685484E-1,-2.964151E-2,2.3688905E-2,-1.5526327E-1,9.440386E-2,1.5087251E-1,-1.7949468E-1,2.908922E-1,-3.1028882E-2,1.0374179E-1,-2.4830486E-1,3.556233E-2,-4.7562394E-2,4.3005046E-1,-3.23673E-2,-6.978677E-2,-3.822059E-1,4.3472037E-1,-1.8267153E-1,6.1894737E-2,-1.3831575E-1,6.248778E-3,3.6527973E-1],"split_indices":[1,6,5,2,6,4,3,0,1,5,6,3,2,4,4,2,0,4,2,4,3,6,6,0,0,0,0,4,0,2,0,0,0,4,0,0,0,0,2,1,2,5,2,1,5,2,2,2,4,0,0,3,2,0,2,2,0,0,0,0,0,0,0,0,0,0,0,0,0,0,0,0,0,0,0,0,0,0,0,0,0,0,0,0,0,0,0,0,0,0,0,0,0,0,0],"split_type":[0,0,0,0,0,0,0,0,0,0,0,0,0,0,0,0,0,0,0,0,0,0,0,0,0,0,0,0,0,0,0,0,0,0,0,0,0,0,0,0,0,0,0,0,0,0,0,0,0,0,0,0,0,0,0,0,0,0,0,0,0,0,0,0,0,0,0,0,0,0,0,0,0,0,0,0,0,0,0,0,0,0,0,0,0,0,0,0,0,0,0,0,0,0,0],"sum_hessian":[1.46E3,9.26E2,5.34E2,1.8E1,9.08E2,7.6E1,4.58E2,6E0,1.2E1,5.4E1,8.54E2,7.1E1,5E0,4.3E2,2.8E1,2E0,4E0,7E0,5E0,3.9E1,1.5E1,3E2,5.54E2,3.3E1,3.8E1,1E0,4E0,3.73E2,5.7E1,2.6E1,2E0,1E0,1E0,5E0,2E0,4E0,1E0,3E0,3.6E1,4E0,1.1E1,2E2,1E2,6.4E1,4.9E2,2E1,1.3E1,1.6E1,2.2E1,1E0,3E0,3.6E2,1.3E1,5.3E1,4E0,2E1,6E0,1E0,4E0,1E0,2E0,1.9E1,1.7E1,2E0,2E0,1E1,1E0,8E0,1.92E2,9.4E1,6E0,5E1,1.4E1,1.29E2,3.61E2,1.5E1,5E0,9E0,4E0,1.2E1,4E0,1.5E1,7E0,8.6E1,2.74E2,8E0,5E0,4.2E1,1.1E1,3E0,1E0,9E0,1.1E1,3E0,3E0],"tree_param":{"num_deleted":"0","num_feature":"7","num_nodes":"95","size_leaf_vector":"1"}},{"base_weights":[2.9751454E-3,-3.8387924E-1,5.369305E-3,-5.467269E-1,3.7217524E-2,4.5184863E-1,-5.460095E-4,-1.24258935E-1,-2.4975395E-1,6.3882166E-1,-2.2748443E-1,-3.0384368E-1,2.2251892E-3,6.1442375E-2,-1.02204435E-1,1.9441497E-1,1.1144774E0,-4.647289E-1,1.7433023E-1,2.3856123E-1,-3.0358604E-3,-1.3817704E-2,4.1466773E-2,4.302288E-1,-1.274446E-1,-1.1378653E-1,1.3820565E0,7.105962E-2,-5.690022E-1,1.0048381E-1,9.142955E-3,-1.3837357E-1,6.0058594E-1,-8.86064E-1,7.8345125E-4,3.3524477E-1,2.078446E-2,-9.140214E-2,8.7220825E-2,5.751413E-1,1.5043838E-1,-1.8882945E-1,-1.2835193E-2,7.660282E-3,-3.545952E-3,-2.0542982E-1,1.480844E-1,3.10581E-1,-3.1856786E-2,-1.1371629E-1,-3.134416E-1,1.7848754E-1,-1.0577566E-3],"categories":[],"categories_nodes":[],"categories_segments":[],"categories_sizes":[],"default_left":[0,0,0,0,0,0,0,0,0,0,0,0,0,0,0,0,0,0,0,0,0,0,0,0,0,0,0,0,0,0,0,0,0,0,0,0,0,0,0,0,0,0,0,0,0,0,0,0,0,0,0,0,0],"id":17,"left_children":[1,3,5,7,-1,9,11,13,-1,15,-1,17,19,21,-1,23,25,27,29,31,33,-1,-1,35,37,-1,39,-1,41,-1,43,45,47,49,51,-1,-1,-1,-1,-1,-1,-1,-1,-1,-1,-1,-1,-1,-1,-1,-1,-1,-1],"loss_changes":[1.3552266E0,8.122741E-1,3.837715E0,7.417016E-1,0E0,4.7833796E0,1.206791E0,1.8169203E-1,0E0,3.3768663E0,0E0,1.0811207E0,1.7700477E0,3.1128328E-2,0E0,8.138196E-1,3.7218037E0,8.663523E-1,1.0306436E-1,4.3133564E0,4.6986704E0,0E0,0E0,1.4109534E0,4.5914882E-1,0E0,2.336959E0,0E0,2.5926137E-1,0E0,1.3326345E-3,5.8630285E0,5.0255175E0,8.686209E-2,3.556047E0,0E0,0E0,0E0,0E0,0E0,0E0,0E0,0E0,0E0,0E0,0E0,0E0,0E0,0E0,0E0,0E0,0E0,0E0],"parents":[2147483647,0,0,1,1,2,2,3,3,5,5,6,6,7,7,9,9,11,11,12,12,13,13,15,15,16,16,17,17,18,18,19,19,20,20,23,23,24,24,26,26,28,28,30,30,31,31,32,32,33,33,34,34],"right_children":[2,4,6,8,-1,10,12,14,-1,16,-1,18,20,22,-1,24,26,28,30,32,34,-1,-1,36,38,-1,40,-1,42,-1,44,46,48,50,52,-1,-1,-1,-1,-1,-1,-1,-1,-1,-1,-1,-1,-1,-1,-1,-1,-1,-1],"split_conditions":[-9.997685E-1,7E0,-9.9843544E-1,4E0,3.7217524E-2,8E0,-9.966589E-1,4E0,-2.4975395E-1,-9.9925E-1,-2.2748443E-1,5E0,-9.899325E-1,2E0,-1.02204435E-1,4E0,2E0,2E0,6E0,4E0,-9.8867756E-1,-1.3817704E-2,4.1466773E-2,2.73E2,8E0,-1.1378653E-1,5E0,7.105962E-2,5E0,1.0048381E-1,2E0,2.71E2,3E0,4E0,-9.8594815E-1,3.3524477E-1,2.078446E-2,-9.140214E-2,8.7220825E-2,5.751413E-1,1.5043838E-1,-1.8882945E-1,-1.2835193E-2,7.660282E-3,-3.545952E-3,-2.0542982E-1,1.480844E-1,3.10581E-1,-3.1856786E-2,-1.1371629E-1,-3.134416E-1,1.7848754E-1,-1.0577566E-3],"split_indices":[5,1,5,1,0,2,5,0,0,5,0,1,5,0,0,0,3,0,1,0,5,0,0,4,0,0,3,0,2,0,0,4,3,0,5,0,0,0,0,0,0,0,0,0,0,0,0,0,0,0,0,0,0],"split_type":[0,0,0,0,0,0,0,0,0,0,0,0,0,0,0,0,0,0,0,0,0,0,0,0,0,0,0,0,0,0,0,0,0,0,0,0,0,0,0,0,0,0,0,0,0,0,0,0,0,0,0,0,0],"sum_hessian":[1.46E3,8E0,1.452E3,6E0,2E0,1.8E1,1.434E3,3E0,3E0,1.6E1,2E0,1.2E1,1.422E3,2E0,1E0,9E0,7E0,9E0,3E0,3E1,1.392E3,1E0,1E0,5E0,4E0,1E0,6E0,1E0,8E0,1E0,2E0,1.5E1,1.5E1,5E0,1.387E3,1E0,4E0,3E0,1E0,3E0,3E0,7E0,1E0,1E0,1E0,8E0,7E0,9E0,6E0,2E0,3E0,9E0,1.378E3],"tree_param":{"num_deleted":"0","num_feature":"7","num_nodes":"53","size_leaf_vector":"1"}},{"base_weights":[2.3528337E-3,9.008968E-3,-9.679126E-2,5.461468E-3,9.763842E-1,-4.5859155E-1,3.7646953E-2,9.172276E-3,-1.0064547E0,-2.8308955E-1,5.076889E-1,-6.2583536E-1,5.758972E-1,4.5659882E-1,-3.257073E-1,7.148342E-2,-1.3286302E-2,7.4186295E-2,-1.3817122E0,-6.9674134E-1,1.2947853E-1,2.8039393E-1,-7.505254E-2,3.2550573E-2,1.0738578E0,-1.2348447E0,5.6745246E-2,3.214521E-1,-8.260037E-4,-1.2680045E-1,1.8439315E-2,-4.7180328E-1,-1.2132247E-1,-2.6465404E-1,-8.9388114E-1,1.0614312E0,-3.8117173E-1,7.2153604E-1,4.3396705E-1,-1.3233749E0,-5.2431393E-2,4.461608E-1,-7.7165926E-1,1.528933E-1,-1.007099E-2,-1.1415227E-2,1.8542616E-1,-1.767798E-2,-2.6443544E-1,8.65896E-2,-4.636265E-4,-1.6622317E-1,4.8986528E-2,-3.0977678E-1,-1.2326526E-2,5.9837204E-1,-1.6097061E-1,-2.5106877E-1,2.0929672E-1,-2.4343714E-1,5.5250484E-1,-4.1975346E-1,-9.617179E-2,5.122062E-2,4.3089667E-1,-2.7515134E-1,5.8865227E-2],"categories":[],"categories_nodes":[],"categories_segments":[],"categories_sizes":[],"default_left":[0,0,0,0,0,0,0,0,0,0,0,0,0,0,0,0,0,0,0,0,0,0,0,0,0,0,0,0,0,0,0,0,0,0,0,0,0,0,0,0,0,0,0,0,0,0,0,0,0,0,0,0,0,0,0,0,0,0,0,0,0,0,0,0,0,0,0],"id":18,"left_children":[1,3,5,7,9,11,13,15,17,-1,-1,19,21,23,25,27,29,-1,31,33,-1,-1,-1,35,37,39,41,43,45,47,49,-1,-1,51,53,55,57,-1,59,61,-1,63,65,-1,-1,-1,-1,-1,-1,-1,-1,-1,-1,-1,-1,-1,-1,-1,-1,-1,-1,-1,-1,-1,-1,-1,-1],"loss_changes":[9.650099E-1,4.6961837E0,4.492125E0,5.1385975E0,8.469717E0,4.6857123E0,1.0500217E1,1.9069593E0,2.6940618E0,0E0,0E0,1.9502296E0,1.4192363E0,8.340967E0,1.2935041E1,6.5253735E0,3.6108472E0,0E0,1.1052132E-1,1.5522442E0,0E0,0E0,0E0,8.918005E0,1.0030468E1,8.010464E-1,9.054312E0,5.428912E0,6.497447E0,1.1165472E1,4.233834E0,0E0,0E0,1.081326E0,1.6136217E0,1.0017193E1,7.95858E0,0E0,1.9026474E1,3.116188E-1,0E0,4.9363656E0,1.4475021E0,0E0,0E0,0E0,0E0,0E0,0E0,0E0,0E0,0E0,0E0,0E0,0E0,0E0,0E0,0E0,0E0,0E0,0E0,0E0,0E0,0E0,0E0,0E0,0E0],"parents":[2147483647,0,0,1,1,2,2,3,3,4,4,5,5,6,6,7,7,8,8,11,11,12,12,13,13,14,14,15,15,16,16,18,18,19,19,23,23,24,24,25,25,26,26,27,27,28,28,29,29,30,30,33,33,34,34,35,35,36,36,38,38,39,39,41,41,42,42],"right_children":[2,4,6,8,10,12,14,16,18,-1,-1,20,22,24,26,28,30,-1,32,34,-1,-1,-1,36,38,40,42,44,46,48,50,-1,-1,52,54,56,58,-1,60,62,-1,64,66,-1,-1,-1,-1,-1,-1,-1,-1,-1,-1,-1,-1,-1,-1,-1,-1,-1,-1,-1,-1,-1,-1,-1,-1],"split_conditions":[3.45E2,3.44E2,2E0,3.43E2,2E0,6E0,3E0,2E0,2E0,-2.8308955E-1,5.076889E-1,6E0,3E0,2E0,3.52E2,7.2E1,7.2E1,7.4186295E-2,3E0,2E0,1.2947853E-1,2.8039393E-1,-7.505254E-2,3E0,3.52E2,9E0,3.6E2,4E0,7E0,9.14128E-1,8.7E1,-4.7180328E-1,-1.2132247E-1,3.59E2,3.64E2,3E0,3.55E2,7.2153604E-1,3.59E2,7E0,-5.2431393E-2,6E0,6E0,1.528933E-1,-1.007099E-2,-1.1415227E-2,1.8542616E-1,-1.767798E-2,-2.6443544E-1,8.65896E-2,-4.636265E-4,-1.6622317E-1,4.8986528E-2,-3.0977678E-1,-1.2326526E-2,5.9837204E-1,-1.6097061E-1,-2.5106877E-1,2.0929672E-1,-2.4343714E-1,5.5250484E-1,-4.1975346E-1,-9.617179E-2,5.122062E-2,4.3089667E-1,-2.7515134E-1,5.8865227E-2],"split_indices":[4,4,3,4,1,2,2,3,1,0,0,0,0,2,4,4,4,0,0,0,0,0,0,3,4,3,4,0,2,5,4,0,0,4,4,0,4,0,4,2,0,1,1,0,0,0,0,0,0,0,0,0,0,0,0,0,0,0,0,0,0,0,0,0,0,0,0],"split_type":[0,0,0,0,0,0,0,0,0,0,0,0,0,0,0,0,0,0,0,0,0,0,0,0,0,0,0,0,0,0,0,0,0,0,0,0,0,0,0,0,0,0,0,0,0,0,0,0,0,0,0,0,0,0,0,0,0,0,0,0,0,0,0,0,0,0,0],"sum_hessian":[1.46E3,1.369E3,9.1E1,1.365E3,4E0,2.4E1,6.7E1,1.361E3,4E0,1E0,3E0,2.1E1,3E0,3.1E1,3.6E1,3.6E2,1.001E3,1E0,3E0,2E1,1E0,2E0,1E0,1.9E1,1.2E1,1E1,2.6E1,8E1,2.8E2,2.18E2,7.83E2,2E0,1E0,7E0,1.3E1,5E0,1.4E1,3E0,9E0,9E0,1E0,1.8E1,8E0,5.2E1,2.8E1,2.65E2,1.5E1,2.01E2,1.7E1,5.3E1,7.3E2,4E0,3E0,1.1E1,2E0,3E0,2E0,1E1,4E0,5E0,4E0,8E0,1E0,1.5E1,3E0,7E0,1E0],"tree_param":{"num_deleted":"0","num_feature":"7","num_nodes":"67","size_leaf_vector":"1"}},{"base_weights":[2.2258612E-3,6.532818E-3,-1.8434589E-1,4.865805E-3,5.9918976E-1,3.1539947E-1,-3.3102345E-1,8.0610225E-3,-4.4838303E-1,3.7430573E-1,-3.287077E-2,-1.1014666E-1,4.9413338E-1,-3.9835665E-1,1.3889834E-1,2.3703891E-1,3.945797E-3,-6.8934697E-1,-1.7284922E-1,3.4860637E-2,-4.9652483E-2,-5.616578E-1,2.0372625E-1,-2.7502564E-1,-1.7856725E-1,1.06424294E-1,-7.6297425E-2,-5.2282766E-2,8.583828E-1,-1.2694046E-1,1.0447715E-2,3.5130717E-2,-2.7607048E-1,-4.0082198E-1,5.6619268E-2,6.520551E-2,-2.4322444E-1,3.4816113E-1,-3.8892096E-1,-8.969568E-2,5.2493416E-2,-9.500628E-2,3.2144734E-1,6.97438E-3,-2.6399875E-1,1.813955E-1,1.2340933E-3,-1.3868177E-1,-3.247054E-2,4.174483E-3,1.5249804E-1,-3.3145554E-2,-1.7518115E-1],"categories":[],"categories_nodes":[],"categories_segments":[],"categories_sizes":[],"default_left":[0,0,0,0,0,0,0,0,0,0,0,0,0,0,0,0,0,0,0,0,0,0,0,0,0,0,0,0,0,0,0,0,0,0,0,0,0,0,0,0,0,0,0,0,0,0,0,0,0,0,0,0,0],"id":19,"left_children":[1,3,5,7,9,11,13,15,17,-1,19,21,-1,23,25,27,29,31,33,-1,-1,35,-1,37,-1,-1,-1,39,41,43,45,-1,-1,47,-1,-1,-1,49,51,-1,-1,-1,-1,-1,-1,-1,-1,-1,-1,-1,-1,-1,-1],"loss_changes":[1.1752002E0,1.4088892E0,2.523352E0,2.068788E0,1.6805671E0,4.715062E0,8.78006E-1,1.3342973E0,5.4478407E-1,0E0,7.8550376E-2,2.8758507E0,0E0,3.9473486E-1,4.2972872E-1,4.539085E0,1.1867855E0,1.0387592E0,5.7023E-1,0E0,0E0,1.146436E0,0E0,1.2710562E0,0E0,0E0,0E0,1.0615016E0,2.3426661E0,7.485069E0,4.9957457E0,0E0,0E0,2.1884382E-2,0E0,0E0,0E0,1.535309E-1,6.956761E-1,0E0,0E0,0E0,0E0,0E0,0E0,0E0,0E0,0E0,0E0,0E0,0E0,0E0,0E0],"parents":[2147483647,0,0,1,1,2,2,3,3,4,4,5,5,6,6,7,7,8,8,10,10,11,11,13,13,14,14,15,15,16,16,17,17,18,18,21,21,23,23,27,27,28,28,29,29,30,30,33,33,37,37,38,38],"right_children":[2,4,6,8,10,12,14,16,18,-1,20,22,-1,24,26,28,30,32,34,-1,-1,36,-1,38,-1,-1,-1,40,42,44,46,-1,-1,48,-1,-1,-1,50,52,-1,-1,-1,-1,-1,-1,-1,-1,-1,-1,-1,-1,-1,-1],"split_conditions":[8E0,1E0,-9.275417E-1,3.63E2,3E0,2.91E2,7E0,-9.9843544E-1,2E0,3.7430573E-1,3E0,6E0,4.9413338E-1,9E0,2E0,-9.9925E-1,-9.813065E-1,2E0,5E0,3.4860637E-2,-4.9652483E-2,3E0,2.0372625E-1,2E0,-1.7856725E-1,1.06424294E-1,-7.6297425E-2,-9.997685E-1,2E0,-9.8594815E-1,-9.7601056E-1,3.5130717E-2,-2.7607048E-1,7E0,5.6619268E-2,6.520551E-2,-2.4322444E-1,4E0,6.4324905E-16,-8.969568E-2,5.2493416E-2,-9.500628E-2,3.2144734E-1,6.97438E-3,-2.6399875E-1,1.813955E-1,1.2340933E-3,-1.3868177E-1,-3.247054E-2,4.174483E-3,1.5249804E-1,-3.3145554E-2,-1.7518115E-1],"split_indices":[2,6,5,4,2,4,0,5,3,0,0,0,0,2,1,5,5,1,1,0,0,1,0,1,0,0,0,5,3,5,5,0,0,2,0,0,0,0,5,0,0,0,0,0,0,0,0,0,0,0,0,0,0],"split_type":[0,0,0,0,0,0,0,0,0,0,0,0,0,0,0,0,0,0,0,0,0,0,0,0,0,0,0,0,0,0,0,0,0,0,0,0,0,0,0,0,0,0,0,0,0,0,0,0,0,0,0,0,0],"sum_hessian":[1.46E3,1.428E3,3.2E1,1.425E3,3E0,7E0,2.5E1,1.416E3,9E0,1E0,2E0,6E0,1E0,2.2E1,3E0,2.4E1,1.392E3,4E0,5E0,1E0,1E0,4E0,2E0,1.5E1,7E0,2E0,1E0,1.7E1,7E0,6.5E1,1.327E3,1E0,3E0,3E0,2E0,1E0,3E0,2E0,1.3E1,8E0,9E0,1E0,6E0,5.5E1,1E1,1.3E1,1.314E3,2E0,1E0,1E0,1E0,6E0,7E0],"tree_param":{"num_deleted":"0","num_feature":"7","num_nodes":"53","size_leaf_vector":"1"}},{"base_weights":[1.8583639E-3,2.0772758E-1,9.1110903E-4,1.829069E-2,-2.9260768E-2,1.3258303E-2,5.3012097E-1,-4.4357363E-2,2.0895323E-1,3.334798E-2,-1.3179275E-1,1.0531974E0,-3.870238E-1,1.0823929E-1,-7.433637E-2,-4.8594758E-1,6.5019107E-1,1.431043E-2,3.4839803E-1,-9.810349E-2,-3.050631E-1,-2.937491E-1,1.8001078E0,-1.9788232E-1,6.46092E-2,2.0969622E-1,-4.067767E-1,-5.665544E-1,-5.4755524E-2,-7.517762E-1,3.00111E-1,-8.611231E-2,1.148236E0,5.9229555E-3,-1.7257425E-1,2.9046488E-1,3.7780423E-2,2.9277759E-2,-7.276253E-2,9.679327E-2,-2.2898038E-1,1.6659491E-1,6.0897994E-1,-1.7327346E-1,7.607037E-2,8.670983E-2,-1.8684559E-1,-3.6971778E-2,-2.9833943E-1,2.4906943E-2,-2.6021387E-2,-3.443378E-1,-1.2542537E-1,1.3112333E-1,-1.6618395E-2,5.008786E-1,-1.5428257E-1,1.4638397E-1,5.1816034E-1],"categories":[],"categories_nodes":[],"categories_segments":[],"categories_sizes":[],"default_left":[0,0,0,0,0,0,0,0,0,0,0,0,0,0,0,0,0,0,0,0,0,0,0,0,0,0,0,0,0,0,0,0,0,0,0,0,0,0,0,0,0,0,0,0,0,0,0,0,0,0,0,0,0,0,0,0,0,0,0],"id":20,"left_children":[1,-1,3,5,7,9,11,13,15,17,19,21,23,25,27,29,31,33,35,37,-1,39,41,-1,-1,43,45,47,49,51,53,55,57,-1,-1,-1,-1,-1,-1,-1,-1,-1,-1,-1,-1,-1,-1,-1,-1,-1,-1,-1,-1,-1,-1,-1,-1,-1,-1],"loss_changes":[9.5507187E-1,0E0,7.66122E-1,2.380671E0,1.9296503E0,2.6823878E0,4.7252436E0,2.3091187E0,1.0127688E1,4.841222E0,3.2398376E0,6.56507E0,7.9886067E-1,4.42221E0,4.026596E0,2.9420564E0,7.4331217E0,2.4551876E0,6.2208595E0,3.1046631E0,0E0,1.1144886E0,1.7082214E-2,0E0,0E0,2.5641878E0,2.2845511E0,2.9126296E0,1.796239E0,8.4159946E-1,2.1898156E-1,7.6241903E0,3.7446318E0,0E0,0E0,0E0,0E0,0E0,0E0,0E0,0E0,0E0,0E0,0E0,0E0,0E0,0E0,0E0,0E0,0E0,0E0,0E0,0E0,0E0,0E0,0E0,0E0,0E0,0E0],"parents":[2147483647,0,0,2,2,3,3,4,4,5,5,6,6,7,7,8,8,9,9,10,10,11,11,12,12,13,13,14,14,15,15,16,16,17,17,18,18,19,19,21,21,22,22,25,25,26,26,27,27,28,28,29,29,30,30,31,31,32,32],"right_children":[2,-1,4,6,8,10,12,14,16,18,20,22,24,26,28,30,32,34,36,38,-1,40,42,-1,-1,44,46,48,50,52,54,56,58,-1,-1,-1,-1,-1,-1,-1,-1,-1,-1,-1,-1,-1,-1,-1,-1,-1,-1,-1,-1,-1,-1,-1,-1,-1,-1],"split_conditions":[1E0,2.0772758E-1,4E0,9.997685E-1,7E0,9.3383723E-1,5E0,-8.8406754E-1,5E0,8.8406754E-1,7E0,2E0,3E0,7E0,-8.4061843E-1,9.0881765E-1,-6.2876284E-1,8.717063E-1,9.033558E-1,8.7E1,-3.050631E-1,4E0,3E0,-1.9788232E-1,6.46092E-2,-9.997685E-1,3E0,-8.6314213E-1,-5.3073007E-1,2E0,9E0,-9.1758364E-1,9.4E1,5.9229555E-3,-1.7257425E-1,2.9046488E-1,3.7780423E-2,2.9277759E-2,-7.276253E-2,9.679327E-2,-2.2898038E-1,1.6659491E-1,6.0897994E-1,-1.7327346E-1,7.607037E-2,8.670983E-2,-1.8684559E-1,-3.6971778E-2,-2.9833943E-1,2.4906943E-2,-2.6021387E-2,-3.443378E-1,-1.2542537E-1,1.3112333E-1,-1.6618395E-2,5.008786E-1,-1.5428257E-1,1.4638397E-1,5.1816034E-1],"split_indices":[3,0,1,5,0,5,0,5,1,5,2,1,2,1,5,6,5,5,5,4,0,0,0,0,0,5,2,5,5,2,0,5,4,0,0,0,0,0,0,0,0,0,0,0,0,0,0,0,0,0,0,0,0,0,0,0,0,0,0],"split_type":[0,0,0,0,0,0,0,0,0,0,0,0,0,0,0,0,0,0,0,0,0,0,0,0,0,0,0,0,0,0,0,0,0,0,0,0,0,0,0,0,0,0,0,0,0,0,0,0,0,0,0,0,0,0,0,0,0,0,0],"sum_hessian":[1.46E3,1E0,1.459E3,9.26E2,5.33E2,9.18E2,8E0,5.02E2,3.1E1,8.07E2,1.11E2,5E0,3E0,8.2E1,4.2E2,1.2E1,1.9E1,7.62E2,4.5E1,1.08E2,3E0,2E0,3E0,2E0,1E0,6.9E1,1.3E1,1.5E1,4.05E2,9E0,3E0,8E0,1.1E1,7.56E2,6E0,1.1E1,3.4E1,4.6E1,6.2E1,1E0,1E0,1E0,2E0,3E0,6.6E1,3E0,1E1,8E0,7E0,7.6E1,3.29E2,3E0,6E0,2E0,1E0,1E0,7E0,6E0,5E0],"tree_param":{"num_deleted":"0","num_feature":"7","num_nodes":"59","size_leaf_vector":"1"}},{"base_weights":[1.7478061E-3,-2.0451557E-3,1.3316369E-1,1.6522483E-3,-4.7613534E-1,-3.141171E-1,3.076372E-1,-1.9547255E-3,3.617163E-1,-2.6845497E-1,-1.0903418E-1,-7.786648E-1,1.475948E-1,1.9696417E-1,1.2380399E0,1.4850628E-2,-5.95441E-2,5.990038E-1,-3.812533E-1,4.2710057E-1,-4.089082E-1,-1.0366774E-2,-2.6400885E-1,5.59865E-1,-7.078725E-2,-9.151626E-3,5.662696E-1,2.0539714E-2,-4.9461195E-1,-9.732539E-2,3.8412312E-1,9.175375E-1,-1.8781462E-1,-2.9423395E-2,-2.1551146E-1,1.120162E-2,1.8099365E-1,-2.0958857E-1,-1.6182098E-1,1.5567306E-1,9.381114E-1,-4.3752667E-1,3.9648545E-1,3.2296819E-3,1.1537696E-1,-2.0852192E-1,2.4023546E-2,-5.4699183E-3,-7.8343794E-2,-1.5265064E-2,2.8271815E-1,4.5084217E-1,1.8577226E-1,-1.2391745E-1,7.31874E-2,-1.9014502E-2,5.7739737E-3,-1.7824293E-3,-9.441895E-2,2.6207557E-1,-3.2872953E-2,3.828286E-1,5.242875E-2,-6.9337725E-3,-2.541955E-1,2.073067E-1,-2.4979085E-1],"categories":[],"categories_nodes":[],"categories_segments":[],"categories_sizes":[],"default_left":[0,0,0,0,0,0,0,0,0,0,0,0,0,0,0,0,0,0,0,0,0,0,0,0,0,0,0,0,0,0,0,0,0,0,0,0,0,0,0,0,0,0,0,0,0,0,0,0,0,0,0,0,0,0,0,0,0,0,0,0,0,0,0,0,0,0,0],"id":21,"left_children":[1,3,5,7,9,11,13,15,17,-1,19,21,-1,23,25,27,29,31,33,35,37,-1,-1,39,41,-1,-1,43,45,47,49,51,53,55,-1,-1,-1,-1,57,59,61,63,65,-1,-1,-1,-1,-1,-1,-1,-1,-1,-1,-1,-1,-1,-1,-1,-1,-1,-1,-1,-1,-1,-1,-1,-1],"loss_changes":[7.285157E-1,2.4916618E0,3.2962186E0,1.8332314E0,1.5932469E0,4.876751E0,2.8452652E0,1.3538824E0,2.6965356E0,0E0,1.3000551E0,5.7299995E-1,0E0,2.7603133E0,2.5294375E0,3.149101E0,5.334278E0,2.9292371E0,4.5329612E-1,1.8351471E-1,2.4487817E-1,0E0,0E0,1.688571E0,3.0867176E0,0E0,0E0,3.8103204E0,1.438097E0,3.7786682E0,6.119239E0,4.6607208E-1,4.897848E-1,6.1781253E-3,0E0,0E0,0E0,0E0,9.347149E-2,1.4287057E0,1.3249841E0,1.6786504E0,3.4715428E0,0E0,0E0,0E0,0E0,0E0,0E0,0E0,0E0,0E0,0E0,0E0,0E0,0E0,0E0,0E0,0E0,0E0,0E0,0E0,0E0,0E0,0E0,0E0,0E0],"parents":[2147483647,0,0,1,1,2,2,3,3,4,4,5,5,6,6,7,7,8,8,10,10,11,11,13,13,14,14,15,15,16,16,17,17,18,18,19,19,20,20,23,23,24,24,27,27,28,28,29,29,30,30,31,31,32,32,33,33,38,38,39,39,40,40,41,41,42,42],"right_children":[2,4,6,8,10,12,14,16,18,-1,20,22,-1,24,26,28,30,32,34,36,38,-1,-1,40,42,-1,-1,44,46,48,50,52,54,56,-1,-1,-1,-1,58,60,62,64,66,-1,-1,-1,-1,-1,-1,-1,-1,-1,-1,-1,-1,-1,-1,-1,-1,-1,-1,-1,-1,-1,-1,-1,-1],"split_conditions":[9.979172E-1,9.966589E-1,2E0,9.9421793E-1,8.8E1,3E0,9.5E1,5E0,4E0,-2.6845497E-1,3E0,2E0,1.475948E-1,9.1E1,3E0,9.899325E-1,7E0,6E0,2E0,2E0,4E0,-1.0366774E-2,-2.6400885E-1,3E0,4E0,-9.151626E-3,5.662696E-1,9.7784835E-1,5E0,5.380052E-1,2.7609697E-1,2E0,3E0,5E0,-2.1551146E-1,1.120162E-2,1.8099365E-1,-2.0958857E-1,5E0,3E0,3E0,3E0,4E0,3.2296819E-3,1.1537696E-1,-2.0852192E-1,2.4023546E-2,-5.4699183E-3,-7.8343794E-2,-1.5265064E-2,2.8271815E-1,4.5084217E-1,1.8577226E-1,-1.2391745E-1,7.31874E-2,-1.9014502E-2,5.7739737E-3,-1.7824293E-3,-9.441895E-2,2.6207557E-1,-3.2872953E-2,3.828286E-1,5.242875E-2,-6.9337725E-3,-2.541955E-1,2.073067E-1,-2.4979085E-1],"split_indices":[5,5,0,5,4,2,4,3,0,0,0,3,0,4,0,5,1,3,2,0,0,0,0,3,3,0,0,5,1,5,6,1,0,0,0,0,0,0,0,1,2,3,1,0,0,0,0,0,0,0,0,0,0,0,0,0,0,0,0,0,0,0,0,0,0,0,0],"split_type":[0,0,0,0,0,0,0,0,0,0,0,0,0,0,0,0,0,0,0,0,0,0,0,0,0,0,0,0,0,0,0,0,0,0,0,0,0,0,0,0,0,0,0,0,0,0,0,0,0,0,0,0,0,0,0,0,0,0,0,0,0,0,0,0,0,0,0],"sum_hessian":[1.46E3,1.42E3,4E1,1.41E3,1E1,1.1E1,2.9E1,1.397E3,1.3E1,4E0,6E0,7E0,4E0,2.7E1,2E0,1.082E3,3.15E2,1E1,3E0,2E0,4E0,1E0,6E0,1.1E1,1.6E1,1E0,1E0,1.071E3,1.1E1,2.91E2,2.4E1,7E0,3E0,2E0,1E0,1E0,1E0,1E0,3E0,6E0,5E0,9E0,7E0,1.044E3,2.7E1,8E0,3E0,1.97E2,9.4E1,1.4E1,1E1,1E0,6E0,2E0,1E0,1E0,1E0,2E0,1E0,1E0,5E0,3E0,2E0,5E0,4E0,6E0,1E0],"tree_param":{"num_deleted":"0","num_feature":"7","num_nodes":"67","size_leaf_vector":"1"}},{"base_weights":[1.8285792E-3,5.222244E-3,-1.451828E-1,7.5934647E-4,1.6017738E-1,8.552638E-1,-3.126673E-1,3.6983935E-3,-3.680265E-1,-1.0478832E-1,4.0489817E-1,3.133402E-1,1.4767564E-2,-4.7453323E-1,4.2331256E-2,9.0244866E-4,2.9763332E-1,-5.506015E-1,8.913016E-2,-3.5239357E-1,3.1066877E-1,1.2324321E0,6.926681E-2,-5.309889E-1,8.971868E-2,3.7916908E-1,-3.7034038E-1,9.074161E-3,-1.039357E-1,4.7256485E-1,-4.429934E-1,-1.8451916E-1,-1.490475E-2,-2.2303669E-1,1.5384461E-1,-7.190273E-1,3.7802577E-1,-6.976622E-2,4.2149404E-1,4.900554E-1,2.8684035E-1,-2.865228E-1,5.6764245E-1,-6.5378904E-1,-2.2707595E-1,-3.57584E-2,3.6807096E-1,-1.3222508E-1,-1.3305116E-2,1.7860513E-3,2.985821E-1,-8.4644586E-2,1.6818965E-2,2.1655591E-1,-4.324583E-2,-1.6162314E-2,-1.8318473E-1,9.521377E-3,-1.0988789E-1,-2.4072698E-1,-7.778907E-3,2.976418E-1,-7.0612375E-3,1.9492902E-2,1.4102529E-1,1.9185627E-2,1.0989254E-1,-1.3990921E-1,8.656841E-2,3.6667335E-1,-6.8661064E-2,-1.2262779E-1,-3.308749E-1,1.0229182E-2,-2.691173E-1,8.8327505E-2,-2.0347382E-1],"categories":[],"categories_nodes":[],"categories_segments":[],"categories_sizes":[],"default_left":[0,0,0,0,0,0,0,0,0,0,0,0,0,0,0,0,0,0,0,0,0,0,0,0,0,0,0,0,0,0,0,0,0,0,0,0,0,0,0,0,0,0,0,0,0,0,0,0,0,0,0,0,0,0,0,0,0,0,0,0,0,0,0,0,0,0,0,0,0,0,0,0,0,0,0,0,0],"id":22,"left_children":[1,3,5,7,9,11,13,15,17,19,21,-1,-1,23,25,27,29,31,33,35,37,39,41,43,-1,45,47,49,51,53,55,-1,-1,57,-1,59,61,-1,63,-1,65,67,69,71,73,75,-1,-1,-1,-1,-1,-1,-1,-1,-1,-1,-1,-1,-1,-1,-1,-1,-1,-1,-1,-1,-1,-1,-1,-1,-1,-1,-1,-1,-1,-1,-1],"loss_changes":[7.296619E-1,9.881017E-1,5.79687E0,1.5079528E0,2.6361337E0,7.1111155E-1,1.6864908E0,1.133851E0,9.671943E-1,2.1668649E0,5.7473063E0,0E0,0E0,1.0322752E0,1.5304558E0,1.1729186E0,1.8936095E0,2.2776532E-1,6.4341855E-1,3.7531633E0,5.796427E-1,1.8070211E0,2.9997127E0,5.606308E-1,0E0,2.1543612E0,9.521717E-2,3.902614E0,2.8386915E0,1.7952018E0,1.6277862E-1,0E0,0E0,1.21119544E-1,0E0,4.994073E-1,1.2563796E0,0E0,9.071863E-2,0E0,2.9711321E-2,1.168813E0,3.929527E0,9.798169E-1,1.2554562E0,1.2603863E0,0E0,0E0,0E0,0E0,0E0,0E0,0E0,0E0,0E0,0E0,0E0,0E0,0E0,0E0,0E0,0E0,0E0,0E0,0E0,0E0,0E0,0E0,0E0,0E0,0E0,0E0,0E0,0E0,0E0,0E0,0E0],"parents":[2147483647,0,0,1,1,2,2,3,3,4,4,5,5,6,6,7,7,8,8,9,9,10,10,13,13,14,14,15,15,16,16,17,17,18,18,19,19,20,20,21,21,22,22,23,23,25,25,26,26,27,27,28,28,29,29,30,30,33,33,35,35,36,36,38,38,40,40,41,41,42,42,43,43,44,44,45,45],"right_children":[2,4,6,8,10,12,14,16,18,20,22,-1,-1,24,26,28,30,32,34,36,38,40,42,44,-1,46,48,50,52,54,56,-1,-1,58,-1,60,62,-1,64,-1,66,68,70,72,74,76,-1,-1,-1,-1,-1,-1,-1,-1,-1,-1,-1,-1,-1,-1,-1,-1,-1,-1,-1,-1,-1,-1,-1,-1,-1,-1,-1,-1,-1,-1,-1],"split_conditions":[8E0,9.979172E-1,-8.7380713E-1,9.966589E-1,3E0,5E0,4E0,9.9421793E-1,4E0,3E0,2E0,3.133402E-1,1.4767564E-2,3.32E2,4E0,9.53681E-1,4E0,6E0,4E0,3.872228E-2,9.1E1,3E0,4E0,4.327756E-1,